0,1,2,3,4,5,6,7,8,9,10,11,12,13,14,15,16,17,18,19,20,21,22,23,24,25,26,27,28,29,30,31,32,33,34,35,36,37,38,39,40,41,42,43,44,45,46,47,48,49,50,51,52,53,54,55,56,57,58,59,60,61,62,63,64,65,66,67,68,69,70,71,72,73,74,75,76,77,78,79,80,81,82,83,84,85,86,87,88,89,90,91,92,93,94,95,96,97,98,99,100
-1.40E-05,-0.400804877,6.47E-06,-0.018177522,0.315761536,0.022805313,-0.25919494,-1.02E-08,-0.424429655,-0.172822788,0.1449278,0.000801402,0.001690029,-0.106948331,1.20E-06,-0.084261864,-0.120401129,0.999995053,-0.168221161,-0.642490685,-4.29E-09,-0.004822999,0.054569695,-0.053489167,-1.11E-15,2.28E-05,0.310663313,-0.975761831,0.771599472,-0.096331246,0.073128708,2.65E-06,-0.744298935,-0.901530325,-0.999999762,-0.462234676,0.996846437,-0.76901418,-0.162337273,0.288285851,-0.159143806,-0.058368746,-0.814457595,0.999858022,2.06E-06,-0.692600608,-0.272465944,-0.5870139,-0.075943723,8.87E-10,-0.08526212,-7.30E-15,0.060240146,0.015125788,3.42E-13,-0.240849525,0.388668865,-0.971081138,0.99985671,0.517284095,0.340730458,0.471836507,-0.835557044,0.917249382,5.96E-06,0.328027576,8.25E-07,-0.999439657,-0.992777646,-0.519032001,-0.059075829,0.411658496,-0.598257959,0.000523995,-0.997296035,0.961778402,-0.96616739,0.114612594,0.929180384,0.885979474,-0.000492779,-0.757038534,-0.997453451,0.997310936,0.047408167,-0.003433952,-0.806133628,0.275447905,-0.021217389,-2.56E-16,-1.92E-15,-0.211623654,0.151998222,-0.018441003,-1.23E-09,-0.000840422,-0.588167727,0.008126212,-0.663893342,0.013914678,0
5.63E-05,-0.187550977,0.010118901,-0.010742466,0.382222801,0.113617934,-0.178805411,6.89E-05,-0.656927943,-0.11713805,0.992033541,0.000163604,0.030710027,-0.545803189,1.79E-05,0.525769889,-0.006647659,0.999986351,-0.923208117,-0.38806963,-7.76E-07,-0.000851511,0.630777299,-0.771031499,-1.64E-09,0.001278375,0.310232818,-0.823158205,0.252694935,-0.030015733,-0.014340132,1.52E-05,-0.70672816,0.091009647,-0.999998927,-0.770095527,0.986995399,-0.802466869,0.553110301,0.187132448,-0.033613347,0.018451234,-0.866491914,0.999833167,0.883356869,-0.70775497,0.882016003,-0.028727915,-0.073359475,3.55E-08,-0.053145867,-3.43E-10,0.388020843,0.228003025,3.95E-08,-0.535909355,0.683286667,0.200996697,0.990599096,-0.492863029,0.633809566,0.680606663,0.999707758,0.001670646,6.17E-06,-0.991790175,9.89E-09,-0.996497691,-3.86E-06,-0.992260516,-0.085504204,9.16E-10,-0.420655876,7.48E-05,0.241822317,0.994560421,-0.001248015,0.18444559,0.999007463,0.510264575,0.087911174,-0.008628504,-0.95292002,0.177605763,-0.510339081,-0.059428442,0.43021968,0.023616787,0.734159112,-0.198274314,7.70E-17,-0.301580399,0.00220835,-0.21532616,2.42E-08,-0.018665221,-0.973162532,0.001177212,0.703214288,0.00089956,0
4.14E-05,-0.307875633,1.08E-06,-0.057307832,0.001284614,0.028294705,-0.236765072,-2.17E-12,-0.244215146,0.393991381,0.974091649,0.00443469,0.054272871,-0.018670199,7.01E-05,0.705488741,-0.05886893,0.999999702,-0.945611417,-0.21435453,-3.27E-08,-0.009671456,0.051330522,-0.706154168,-2.20E-10,9.87E-05,0.311469674,-0.866374254,0.991449356,-0.004254576,0.915726721,1.98E-11,-0.029673323,0.038034055,-0.999999702,-0.588190258,0.999846697,-0.761616766,0.19657509,0.147020295,-1.75E-05,-0.025412804,-0.857366383,0.999923646,0.985387027,-0.508021355,0.958877206,0.169868037,-0.30362761,0.000156816,-0.002624543,-8.43E-09,0.694378257,0.636189878,2.27E-12,-0.73334986,0.127689034,0.558363676,0.999927998,-0.77503705,0.585154295,0.746072054,0.999842763,0.038574304,5.95E-05,-0.999362051,6.77E-08,-0.998978436,-0.000114145,-0.73148632,-0.30611819,1.40E-09,-0.602233768,0.000378903,0.216850638,0.67070055,-0.006987249,0.138188988,-0.655030966,0.999057829,0.04440593,-0.224531084,-0.931384027,0.004417928,-0.083567537,-0.003852749,0.790003181,0.000688032,-0.103127643,-0.197832271,3.53E-12,-0.447721064,0.000594577,-0.084822029,3.38E-09,-0.025782626,-0.893070698,0.22669521,0.766593993,0.074862748,0
-2.60E-05,-0.411743522,1.52E-05,-0.014321199,0.37530905,0.015571564,-0.258251488,-9.78E-09,-0.495023519,-0.20580782,0.148007095,0.00106468,0.001610978,-0.160687312,1.42E-06,-0.152031362,-0.115794554,0.999992549,-0.167651117,-0.689544082,-1.06E-09,-0.004319393,0.048442345,-0.053060509,-3.89E-16,0.000105548,0.310682923,-0.963888526,0.795595884,-0.096728183,0.057019103,2.49E-06,-0.666251242,-0.917032719,-0.999999762,-0.370889843,0.998605669,-0.772107124,-0.176820651,0.223060444,-0.263244987,-0.004847941,-0.801494241,0.999765694,8.23E-07,-0.74751538,-0.27268976,-0.342888683,-0.063146941,1.04E-09,-0.202034265,-4.82E-14,0.049044162,0.010164541,3.95E-13,-0.210020438,0.419557542,-0.957225323,0.999849021,0.5824067,0.339806199,0.472065628,-0.835697234,0.876775742,6.80E-06,0.385501742,2.69E-06,-0.999453783,-0.992469907,-0.52775842,-0.043689068,0.41528219,-0.568183482,0.000677155,-0.998086035,0.961119056,-0.978087664,0.095729828,0.959826827,0.884205759,0.002930893,-0.757038295,-0.997503459,0.99777478,0.155484557,-0.008224732,-0.843153179,0.340831578,-0.047060374,-1.28E-15,-6.73E-15,-0.192051172,0.09716519,-0.039164264,-2.54E-09,-0.00065831,-0.639805555,0.008263733,-0.663665652,0.017239541,0
0.000516385,-0.307878554,1.40E-05,-0.015821064,0.280595779,0.079551809,-0.218866631,-1.75E-08,-0.065181136,0.400622278,0.976400673,0.000587202,0.053707667,-0.104263462,1.46E-06,0.704849243,-0.058418758,0.999999404,-0.944616616,-0.185959429,1.90E-08,-0.005939819,0.038369991,-0.687329233,-2.06E-09,1.38E-05,0.311467797,-0.906908095,0.655851185,-0.004313111,0.748182178,1.20E-08,-0.638093054,0.157114789,-0.999999702,-0.591182947,0.999920964,-0.764410615,0.23133783,0.167599306,-0.009648225,-0.042175248,-0.840031564,0.999938786,0.967603862,-0.3813214,0.992484391,0.169028848,-0.061761182,8.32E-07,0.04975877,-2.00E-11,0.692461371,0.370463163,1.40E-11,-0.282606274,0.55126524,0.685838521,0.998338819,-0.797760367,0.57676065,0.748973906,0.999827981,0.08602529,5.20E-06,-0.996194959,1.99E-09,-0.999055862,-0.081629306,-0.560783923,-0.379919887,4.83E-10,-0.53383261,0.000133439,0.228332371,0.660915613,-0.084403791,0.175626293,0.954259872,0.88686353,0.045322552,-0.11644841,-0.928761065,0.034185328,-0.127036944,-0.003456034,0.67387712,0.142377511,-0.077971667,-0.198155776,9.51E-16,-0.620669901,0.005389445,-0.020281821,4.34E-09,-0.002630296,-0.908747375,0.008167344,0.757501841,0.005098027,0
1.41E-05,-0.204574242,4.17E-05,-0.060260773,0.149870992,0.035582714,-0.201706275,-1.37E-08,-0.290444732,0.123452343,0.994947076,0.000834713,0.005924189,-0.004556034,6.41E-07,0.847442091,-0.024465382,0.999999464,-0.935971737,-0.721353889,7.22E-09,-0.00915127,0.063935861,-0.681609333,-5.98E-09,1.25E-06,0.31099388,-0.906281054,0.941787243,-0.023193277,0.957633018,4.70E-10,-0.789464533,0.164414883,-0.999999523,-0.852355301,0.999514937,-0.761663973,0.140207633,0.117415302,-0.00029389,-0.104310259,-0.870691478,0.999895275,0.976437449,-0.769446969,0.998974681,0.056720443,-0.002448652,1.85E-08,0.016515553,-5.07E-13,0.599091232,0.528421164,2.63E-12,-0.733630955,0.133292526,0.36989513,0.999877453,0.701914072,0.591494083,0.706877291,0.999811947,0.200392455,0.000113079,-0.976005673,8.20E-10,-0.998765588,-0.394348234,-0.624898851,-0.51282078,3.28E-11,-0.508930922,0.001736473,-0.247605756,0.967675269,-0.175728619,0.041957654,0.411834627,0.984776258,0.048377901,-0.744316578,-0.972258747,0.992111146,-0.770636082,-0.001488214,0.616872013,0.087030463,-0.048555844,-0.048041157,1.93E-13,-0.785512149,0.000407909,-0.000622234,3.13E-09,-0.015541251,-0.852219164,0.045683801,0.764614224,0.007203879,0
0.000370489,-0.307871133,8.15E-05,-0.005017598,0.312872738,0.038532801,-0.257379383,-1.32E-08,-0.104753025,0.398043334,0.987588525,0.000524778,0.052646842,-0.278725386,1.11E-06,0.706409156,-0.057438254,0.999999166,-0.945147693,-0.150526553,3.61E-08,-0.004294989,0.048363417,-0.68590045,-2.93E-09,5.72E-05,0.311467111,-0.864729881,0.537916005,-0.004405129,0.72688657,7.48E-09,-0.623096287,0.15185532,-0.999999702,-0.58410567,0.999868691,-0.767550647,0.14427422,0.080338977,-0.008509825,-0.058841102,-0.834817708,0.999939144,0.973598957,-0.515966773,0.978301287,0.169595033,-0.058623195,1.05E-06,0.018531155,-7.95E-11,0.689890623,0.291537106,6.68E-12,-0.308615506,0.628796995,0.598763883,0.997805297,-0.782960653,0.588775337,0.745538056,0.999824286,0.074357793,7.85E-06,-0.996804953,3.93E-09,-0.999041021,-0.090153866,-0.71356529,-0.307197213,9.85E-10,-0.554193854,9.65E-05,0.232379511,0.66260004,-0.027393514,0.138530165,0.983530521,0.865987837,0.049397785,-0.06475012,-0.933573067,0.024700206,-0.090802759,-0.004072905,0.61225152,0.05878358,-0.070881836,-0.197893858,4.11E-15,-0.392582119,0.000951151,-0.068161242,3.02E-09,-0.001403951,-0.935961723,0.007709326,0.762279689,0.003735795,0
0.0003617,-0.307982922,1.73E-05,-0.010993183,0.211274207,0.067642443,-0.247898772,-6.17E-09,-0.077157184,0.40051648,0.986145079,0.000418963,0.053614542,-0.162403643,6.33E-07,0.707708299,-0.057536174,0.999999285,-0.944763839,-0.230021611,1.87E-08,-0.006469839,0.049344696,-0.684287846,-1.41E-09,2.15E-05,0.311466902,-0.878814816,0.673657537,-0.004273014,0.819406927,5.09E-09,-0.587116539,0.136260405,-0.999999702,-0.574827671,0.999901652,-0.76447618,0.165699705,0.150467947,-0.006322857,-0.037864912,-0.848607898,0.999938905,0.977502167,-0.437972844,0.98908186,0.169751272,-0.084799685,8.87E-07,0.05143252,-8.82E-11,0.702543199,0.314297229,6.63E-12,-0.329997748,0.543568015,0.631931603,0.998395264,-0.757378936,0.586116314,0.747518301,0.99981606,0.125671089,4.78E-06,-0.99681735,1.92E-09,-0.999052465,-0.139437765,-0.597531259,-0.39772743,4.11E-10,-0.555983126,0.000101268,0.215606481,0.655609012,-0.038354129,0.157468975,0.963052332,0.914254129,0.052911352,-0.091988832,-0.924372911,0.044342235,-0.170626,-0.003443802,0.721854568,0.110754922,-0.05958404,-0.197810531,2.56E-15,-0.552899003,-0.001098942,-0.016925465,3.03E-09,-0.001861744,-0.918572485,0.00891169,0.759693205,0.00562742,0
2.42E-05,-0.310854971,0.000309566,-0.009155085,0.368473142,0.05697016,-0.231633633,-3.80E-08,-0.155121535,0.49316147,0.994433582,0.000203386,0.072322235,-0.269700468,1.65E-06,0.722668171,-0.043805387,0.999999404,-0.924852014,-0.147178724,-2.87E-08,-0.005320568,0.062103461,-0.743518949,-1.75E-09,9.64E-06,0.311329067,-0.88785696,0.441644698,-0.002183714,0.225902706,1.51E-09,-0.634919167,0.126037106,-0.999999762,-0.500370085,0.999841869,-0.777950644,0.016667789,0.27205199,-0.017781442,-0.009006425,-0.857400894,0.999909878,0.974627912,-0.461883098,0.978734016,0.121600218,-0.170907438,1.14E-06,0.046677373,-2.63E-10,0.701157808,0.353834212,2.56E-10,-0.282793343,0.648287773,0.516564727,0.993040264,-0.841663957,0.582347512,0.75261265,0.999783516,0.024906207,2.24E-06,-0.994063199,2.09E-09,-0.999198318,-0.000747931,-0.763565063,-0.207331285,1.97E-11,-0.523911595,0.000118113,0.114384934,0.910997033,-0.009444077,0.134718195,0.983063698,0.73319912,0.067455076,-0.025819844,-0.921627223,0.006184834,-0.636509657,-0.006690836,0.633933365,0.068308242,0.035422102,-0.193952307,3.16E-16,-0.386694491,0.000707654,-0.035025395,1.02E-08,-0.001172477,-0.917416155,0.006033246,0.741450846,0.003655121,0
1.35E-06,-0.246678874,1.70E-05,-0.200465292,6.63E-05,0.051898707,-0.211629063,-9.31E-12,-0.759776413,-0.003802459,0.955486715,0.001737586,0.00702551,0.002858322,1.86E-05,0.606122315,-0.024391113,0.999971151,-0.941401482,-0.198843241,-9.80E-08,-0.012033428,0.491263092,-0.897525311,-4.12E-11,0.000587197,0.309978783,-0.795372784,0.995676458,-0.023325849,0.565528691,1.74E-08,-0.058499549,0.010199299,-0.999998212,-0.676034093,0.994210482,-0.761547387,0.877670407,0.229252532,-7.18E-07,0.069098487,-0.901342452,0.999748409,0.945839942,-0.630846381,0.984975815,0.074402928,-0.198666558,8.41E-05,6.48E-05,-1.88E-09,0.543067038,0.636057317,1.13E-08,-0.79125756,0.104540393,0.402287811,0.999836028,-0.691134989,0.633590281,0.717798233,0.999767363,5.38E-07,1.53E-05,-0.999140382,1.47E-07,-0.997798622,-1.09E-08,-0.965975046,-0.132387832,1.62E-10,-0.543104112,0.000278488,0.151238307,0.938621461,-0.003418244,0.051699538,-0.733988345,0.999601603,0.042724408,-0.734899402,-0.959759116,0.001349807,-0.599552572,-0.004133424,0.666065335,0.000397787,0.620068133,-0.029406181,1.96E-13,-0.538788855,0.012838624,-0.098124012,7.76E-09,-0.061846115,-0.94572854,0.118548557,0.752018929,0.051759563,0
1.03E-05,-0.265987217,0.000122946,-0.013620476,0.233631134,0.041140184,-0.287577718,-2.36E-08,-0.116289765,0.041466895,0.970780313,0.000335372,0.01004872,-0.16763854,1.77E-06,0.7865448,-0.068475731,0.999999464,-0.949544787,-0.16343452,8.58E-09,-0.006693442,0.027757138,-0.684672236,-2.44E-10,8.03E-07,0.311321318,-0.937820733,0.547917545,-0.031470522,0.52766186,4.99E-09,-0.593860626,0.139803261,-0.999999702,-0.668979824,0.999827683,-0.765678108,0.034978569,0.07849896,-0.014001983,0.003925217,-0.804553509,0.999831438,0.973566771,-0.394738853,0.998163104,0.132828981,-0.092804268,4.01E-09,0.073517255,-2.47E-12,0.621850669,0.449261993,1.35E-11,-0.310618162,0.538562238,0.492073774,0.999309599,-0.895135641,0.573180556,0.624123573,0.999866605,0.972021461,2.81E-07,-0.996814013,5.38E-09,-0.999101996,-0.463453978,-0.42269817,-0.320296079,1.02E-11,-0.531077802,0.000313032,0.013147363,0.769661009,-0.062819101,0.08067593,0.96464169,0.865194798,0.026160317,-0.676405132,-0.963312387,0.005053825,-0.519948304,-0.002362543,0.544413328,0.069933236,-0.079049543,-0.15672043,9.48E-16,-0.453586668,0.010929872,-0.019011738,7.24E-10,-0.002015191,-0.83630383,0.006276371,0.755667984,0.002693801,0
0.000513013,-0.307972908,3.78E-05,-0.019914983,0.383641064,0.106229477,-0.213452682,-1.99E-08,-0.089596331,0.394217551,0.98609817,0.000286969,0.054137442,-0.109927349,1.10E-06,0.696369708,-0.055229038,0.999999344,-0.944068015,-0.313239843,3.06E-08,-0.005535415,0.04754046,-0.696282625,-2.44E-09,1.97E-05,0.311464965,-0.905501425,0.639707088,-0.004163306,0.702492535,4.88E-08,-0.631362021,0.173005968,-0.999999821,-0.593455672,0.999910295,-0.76738292,0.275103599,0.242388144,-0.022186801,-0.061299302,-0.848944664,0.999938607,0.967128396,-0.4250772,0.989184141,0.169032961,-0.061906893,8.50E-07,0.045852158,-9.97E-12,0.690486193,0.350377351,3.05E-11,-0.253519356,0.592428207,0.645961702,0.997829974,-0.698984206,0.592838287,0.747690499,0.999820828,0.069307104,3.86E-06,-0.99538517,2.16E-09,-0.999046206,-0.022419322,-0.54390204,-0.360126436,5.72E-10,-0.531126559,0.000137412,0.231990203,0.666323781,-0.082561456,0.254273355,0.971584678,0.841104865,0.04957125,-0.074898675,-0.926948309,0.181086853,-0.148797631,-0.004934163,0.676485598,0.154827699,-0.047294263,-0.197982579,5.84E-16,-0.601058364,-0.002604291,-0.021427311,5.69E-09,-0.002483358,-0.918295443,0.006869813,0.753629744,0.004965486,0
1.33E-05,-0.184943795,0.0005411,-0.005952609,0.609561622,0.051731504,-0.207964689,6.49E-07,-0.297067016,0.13059175,-0.33309868,6.09E-06,0.02819529,-0.26364103,2.81E-07,0.808924675,-0.005312597,0.999982059,-0.892993152,-0.329213709,1.90E-09,-0.003418175,0.158907771,-0.576656163,-1.33E-10,7.68E-05,0.310408622,-0.897838295,0.348020136,-0.031196272,0.947371125,3.50E-08,-0.672256708,-5.95E-06,-0.999997735,-0.632916331,0.997324407,-0.816087723,-0.079610743,0.267638296,-0.296881825,-0.034747664,-0.913357973,0.999923229,-0.219296813,-0.9104743,0.250077188,-0.150633395,-0.254671156,5.06E-07,-0.002675771,-5.76E-14,0.439391524,0.098828152,5.27E-07,-0.255051404,0.526225746,0.241310462,0.993853927,0.690863788,0.640653491,0.685266495,0.998339117,0.481839955,3.70E-07,-0.951887786,7.01E-08,-0.998626888,-0.147328109,-0.903784692,-0.366434604,1.04E-10,-0.468317837,0.000226644,0.215066627,0.99945128,-0.374199361,0.12833032,0.993572176,0.690270066,0.099641249,-0.002731649,-0.963504732,0.970347524,-0.651270211,-0.009631,0.492985517,0.208766818,0.599372268,-0.199322879,7.31E-18,-0.313033193,4.01E-05,-0.037665229,1.63E-09,-0.001363808,-0.886520207,0.008324674,0.688296616,0.007836957,0
8.34E-06,-0.265991628,7.84E-05,-0.013891747,0.206795067,0.053649567,-0.291262448,-2.88E-09,-0.120953716,0.037693769,0.974144697,0.000535379,0.010627585,-0.11814934,5.50E-07,0.800500631,-0.070097223,0.999999821,-0.949454963,-0.209636614,7.62E-09,-0.006786847,0.027267348,-0.68527168,-1.20E-10,7.25E-07,0.311328411,-0.948370874,0.733096302,-0.031583238,0.555271685,1.51E-09,-0.448742568,0.118375525,-0.999999702,-0.68137002,0.999850392,-0.763777375,0.026734803,0.132178098,-0.008063446,-0.021506539,-0.806548059,0.999831557,0.96519953,-0.352601171,0.99832654,0.138471648,-0.084627323,3.99E-08,0.055453621,-2.47E-12,0.630653441,0.481152982,8.73E-12,-0.345692784,0.532333314,0.515872419,0.999785602,-0.885901928,0.566527367,0.6241225,0.999870896,0.978808105,3.86E-07,-0.99731189,6.31E-09,-0.999100566,-0.434438616,-0.337444127,-0.464713514,1.18E-11,-0.533727765,0.000633186,0.009509529,0.758834183,-0.053948086,0.120607756,0.930404186,0.937827706,0.030099859,-0.700894713,-0.962143302,0.007141114,-0.515991986,-0.003910332,0.682733655,0.143578216,-0.08478827,-0.165556103,1.23E-15,-0.452333242,0.012104806,-0.016452169,8.40E-10,-0.002688471,-0.820775092,0.010581224,0.754175544,0.004280293,0
0.000116013,-0.299764216,0.00022932,-0.035682213,0.095993601,0.238060683,-0.17173101,-3.45E-08,-0.091610916,0.270776451,0.956721961,0.000376182,0.018702159,-0.067860521,2.75E-08,0.827209353,-0.018494835,0.999998033,-0.936131835,-0.514527678,4.51E-10,-0.006196243,0.022712503,-0.627580583,-4.85E-10,1.24E-06,0.311299086,-0.991390467,0.866193831,-0.009718345,0.800954044,5.66E-09,-0.680171907,0.143655151,-0.999999821,-0.643687367,0.99966681,-0.76402092,0.084919125,0.442442775,-0.012701213,0.001096522,-0.79155755,0.999624133,0.958120048,-0.776757836,0.997448504,0.157477453,-0.027677812,7.87E-08,0.076668732,-6.24E-15,0.5678249,0.500857413,1.76E-12,-0.527496159,0.614201367,0.512012482,0.999939203,0.452896506,0.617544174,0.760288477,0.999895155,0.972066998,5.63E-06,-0.995565295,1.00E-09,-0.998908341,-0.339840621,-0.169441044,-0.482239068,1.11E-10,-0.475610256,0.000559578,0.16013746,0.669933975,-0.10999231,0.216149569,0.885806918,0.930042326,0.050504018,-0.407831162,-0.980245292,0.99322933,-0.301127046,-0.004541925,0.673660159,0.271334082,-0.129265636,-0.198757365,2.55E-16,-0.921302319,0.071567036,-0.003531796,-6.13E-09,-0.010168964,-0.757550538,0.013347909,0.760532796,0.002455835,0
0.000135101,-0.138870999,0.000744623,-0.020751176,0.314953834,0.07041727,-0.08246354,8.61E-06,-0.551013827,-0.391929984,0.991601408,7.78E-05,0.025655543,-0.577455699,5.33E-05,0.572756588,-0.005639435,0.999976754,-0.881596267,-0.289383888,-5.22E-06,-0.002003065,0.617937982,-0.691490114,-1.50E-09,0.007497921,-0.24917689,-0.833415091,0.506542981,-0.039529741,0.02823638,3.70E-05,-0.49857673,0.094050407,-0.999998331,-0.798576176,0.987432957,-0.974984467,0.554476321,0.227816805,-0.025215764,0.091616593,-0.930417061,0.999853075,0.827923357,-0.390795231,0.633930981,0.130766407,-0.104464218,5.44E-05,-0.043054748,-3.82E-11,0.366805106,0.124729298,5.40E-11,-0.260555744,0.142600849,0.171834975,0.900459111,-0.556193531,0.731427491,0.663123548,0.997779608,0.006024136,1.55E-06,-0.989088833,3.65E-06,-0.995631814,-6.25E-07,-0.973246634,-0.075732656,1.23E-09,-0.598398864,8.84E-06,0.244046777,0.429272354,-0.002659708,0.067314893,0.999642909,0.640891433,0.053899981,-3.85E-05,-0.970327079,0.073861234,-0.448356003,-0.005374005,0.52876538,0.012330473,0.742020369,-0.271761119,6.91E-16,-0.188332647,-0.000465108,-0.114245914,3.72E-09,-0.003267318,-0.957298934,0.001398686,0.561320662,0.012607449,0
6.64E-06,-0.220650837,1.17E-05,-0.327212393,0.053901631,0.074993759,-0.313397884,-2.12E-08,-0.231873065,0.108138651,-0.511870205,8.02E-05,0.004738349,-0.009602478,2.64E-07,0.655115128,-0.054557931,0.999997497,-0.943461299,-0.163740322,-2.19E-08,-0.016204473,0.216555849,-0.790094793,-1.10E-10,1.28E-05,0.310854346,-0.978595674,0.963428199,-0.031202728,0.87504822,5.53E-08,-0.746047139,-0.91923511,-0.999999702,-0.789940476,0.998436749,-0.761588514,0.494532168,0.261861026,-5.36E-05,-0.186463505,-0.915306389,0.999854565,8.10E-08,-0.531273723,-0.647307873,0.079667926,-0.002259595,8.14E-07,0.018860973,-1.93E-10,0.562888324,0.075139254,5.17E-11,-0.683891594,0.166369826,0.650335789,0.999942422,-0.756713212,0.580140412,0.688558638,0.999832511,0.053636998,1.13E-05,0.208777905,6.58E-10,-0.998937845,-0.022156017,-0.861335993,-0.643898129,3.08E-10,-0.560972631,0.000251919,-0.995310426,0.888816118,-0.022264842,0.097525656,0.630910814,0.988841236,0.075043976,-0.760040581,-0.973877728,0.025107993,-0.136898518,-0.006353604,0.686026692,0.144978419,0.222061262,-6.61E-19,-2.77E-14,-0.788487554,-0.000705039,-0.00062615,2.63E-08,-0.195883781,-0.86239779,0.015211386,0.771571219,0.008715274,0
5.10E-05,-0.196584642,0.004328913,-0.011774339,0.241877347,0.102262035,-0.181635991,1.88E-05,-0.561006188,-0.182820484,0.993845046,7.62E-05,0.027347412,-0.511881828,8.95E-06,0.571335852,-0.004595519,0.999964774,-0.921833813,-0.340201646,-6.29E-07,-0.001881635,0.564179778,-0.711094439,-7.56E-10,0.000866682,0.310258955,-0.815666437,0.29983899,-0.038071346,0.007453864,3.23E-06,-0.678259134,0.142825097,-0.999999106,-0.751679182,0.989674747,-0.870865643,0.29486838,0.156776354,-0.021159025,0.033206761,-0.910577118,0.999904931,0.926670253,-0.610677123,0.882687569,-0.002295806,-0.094577245,1.62E-07,-0.001540048,-4.81E-10,0.429537237,0.204658821,1.07E-08,-0.353786767,0.703303993,0.213879973,0.987849355,-0.533670127,0.634770215,0.663352847,0.999491572,0.0055933,1.11E-06,-0.991419137,3.21E-08,-0.996896029,-8.20E-06,-0.983805358,-0.074280322,6.39E-10,-0.431473553,3.57E-05,0.279841065,0.988128364,-0.001395686,0.17210333,0.999034941,0.4740358,0.062461283,-0.002483923,-0.958020151,0.133729175,-0.453895867,-0.028940942,0.462548733,0.024968414,0.74481827,-0.198756665,3.95E-17,-0.299218357,0.000552047,-0.12028946,9.94E-09,-0.001739473,-0.946937025,0.00103524,0.709412873,0.001994587,0
0.000190682,-0.233712003,7.49E-05,-0.013432992,0.449567139,0.061149485,-0.192930907,-1.39E-08,-0.038836375,0.175510883,0.592062175,0.000130296,0.010262549,-0.178324938,2.82E-06,0.8235057,-0.037451874,0.999998629,-0.942774713,-0.242928684,-5.72E-09,-0.006985218,0.018622544,-0.62590766,-4.05E-09,2.42E-06,0.311158657,-0.951456606,0.488952547,-0.028057279,0.765248358,2.59E-09,-0.632000327,4.78E-06,-0.999999642,-0.581087232,0.999764562,-0.764368713,0.022125851,0.116045237,-0.03663459,-0.097347327,-0.822116792,0.999649763,-0.144284323,-0.418469906,0.901505113,0.073670551,-0.069620468,1.26E-07,0.079886369,-1.57E-12,0.585458636,0.203926936,3.17E-10,-0.369514138,0.505726039,0.392360181,0.999746442,-0.784553349,0.620689094,0.652588427,0.999902964,0.927467048,1.50E-07,-0.996892571,4.32E-09,-0.999158859,-0.275816321,-0.554997563,-0.481759608,3.00E-11,-0.489602834,0.00071577,0.16865778,0.932185054,-0.378691584,0.181281641,0.957257211,0.900278091,0.034411814,-0.014251314,-0.981541932,0.032594282,-0.348012477,-0.006689731,0.604873598,0.117363788,-0.143323153,-0.199050143,1.23E-16,-0.204235286,0.055722713,-0.014309227,1.21E-09,-0.012248161,-0.89612329,0.006978517,0.724580526,0.003913227,0
5.76E-06,-0.211914286,0.000370702,-0.028379185,0.047249891,0.063810989,-0.199551582,1.14E-08,-0.55730623,-0.206339911,0.994575083,9.13E-05,0.005067972,-0.450026006,2.64E-06,0.63040936,-0.031006066,0.999965072,-0.952112794,-0.317131579,-3.17E-07,-0.004179838,0.444275916,-0.850331724,-7.76E-10,0.001844655,0.31048274,-0.793136537,0.903528154,-0.032499131,0.092051238,1.24E-09,-0.305105686,0.037428699,-0.999999285,-0.721619904,0.993610561,-0.763750553,0.558450222,0.146733552,-0.00095437,0.079165079,-0.88719964,0.999800503,0.809967399,-0.675765097,0.956813574,0.084515683,-0.221900135,7.92E-06,-0.010320471,-4.21E-09,0.530004919,0.41406545,9.60E-11,-0.653515041,0.338297486,0.343954474,0.99966687,-0.59691757,0.600543141,0.692520678,0.999537349,0.001164361,7.79E-06,-0.981008768,4.14E-08,-0.997583389,-2.15E-07,-0.960534871,-0.10933575,5.92E-11,-0.53888458,0.000171176,-0.216186002,0.925206721,-0.000824987,0.155861601,0.993843794,0.982690811,0.064917177,-0.745636821,-0.974523246,0.05187301,-0.664290249,-0.020388495,0.683080614,0.003189706,0.619383097,-0.064586706,3.94E-15,-0.253896981,0.004423473,-0.148852482,1.80E-08,-0.008219369,-0.956459284,0.010805405,0.746759713,0.012116913,0
3.59E-06,-0.131367758,0.000110016,-0.004101473,0.631876826,0.05269672,-0.156251311,-9.45E-06,-0.165874198,-0.997327745,0.722806871,0.000166881,0.008793975,-0.306090623,1.34E-07,0.651071608,-0.035107311,0.999999762,-0.908004522,-0.16606389,-8.60E-08,-0.003629796,0.06725014,-0.588733137,-1.85E-08,0.000157074,0.310703814,-0.907676458,0.341589987,-0.12934801,0.249850407,1.12E-06,-0.609014094,0.000591083,-0.999999821,-0.767277479,0.999648154,-0.803488135,-0.0367794,0.089155152,-0.120346054,0.059624236,-0.8915869,0.999908328,0.217787966,-0.39058578,0.87049371,0.129261464,-0.087103389,1.54E-06,-0.046113361,-5.24E-08,0.593363285,0.147466615,2.74E-09,-0.17981118,0.385798752,0.347673297,0.980303049,-0.730911493,0.614291131,-0.997326076,0.998909473,0.030119523,3.42E-06,-0.993725896,1.64E-08,-0.999183476,-0.000122419,-0.770273447,-0.095015429,5.06E-11,-0.573834062,0.000264435,0.172613904,0.894960642,-0.025534773,0.28040421,0.991686344,0.782757878,0.080308042,-0.018975915,-0.990140796,0.105165951,-0.643197119,-0.011085006,0.389539778,0.050036233,0.166088521,-0.198995695,2.43E-16,-0.134915516,0.020383673,-0.059587508,3.94E-09,-0.001374806,-0.95512718,0.004086306,0.659712613,0.01769367,0
-5.23E-05,-0.394994169,1.59E-05,-0.108577557,0.046176586,0.035130132,-0.26300469,-9.18E-09,-0.419546485,-0.072326019,0.022380788,0.00118621,0.001346048,-0.041498724,5.12E-06,-0.138865113,-0.141839668,0.999995708,-0.164235741,-0.701772332,-2.00E-09,-0.007944937,0.0522791,-0.053784214,-1.71E-15,5.31E-06,0.310781032,-0.986870825,0.883369148,-0.097719252,0.598144114,5.35E-07,-0.85127449,-0.912364185,-0.999999762,-0.43094933,0.999126136,-0.762667716,-0.064346634,0.204049006,-0.026345074,-0.084571242,-0.818266094,0.999776602,2.37E-06,-0.688406169,-0.27050668,0.018858204,-0.002987335,2.96E-10,0.05431905,-1.23E-14,0.060104501,0.022470906,4.21E-14,-0.52957648,0.068582028,-0.980335593,0.999939919,0.595483482,0.338910073,0.472792029,-0.839575946,0.942884445,2.52E-06,0.4051525,5.90E-06,-0.99948287,-0.99300009,-0.36350134,-0.100212373,0.438980728,-0.453098744,0.000584051,-0.998426318,0.958356917,-0.978500128,0.047606386,0.607511759,0.929514647,0.013755035,-0.757038355,-0.997743666,0.986374795,0.140587211,-0.001462819,-0.843926668,0.065192334,-0.050915964,-7.16E-19,-5.47E-14,-0.331286967,0.147061363,-0.003137601,-1.96E-09,-0.002593642,-0.56501931,0.01013777,-0.665108681,0.013581075,0
4.57E-05,-0.197309494,0.000412551,-0.014064395,0.38686657,0.127944544,-0.142662004,4.40E-05,-0.666293979,-0.229298264,0.987796307,9.03E-05,0.026087925,-0.607854009,7.80E-05,0.607346058,-0.004457551,0.999957919,-0.920662463,-0.279077083,-4.62E-06,-0.003451995,0.543197334,-0.735510886,-1.72E-09,0.003620635,0.31030196,-0.783301592,0.359295487,-0.044408835,-0.048557408,3.94E-06,-0.612447977,0.221053079,-0.999999106,-0.748234034,0.987721145,-0.976861894,0.700095177,0.195630372,-0.090058282,0.017244687,-0.962352514,0.999935687,0.888892114,-0.425601184,0.756136715,-0.034626819,-0.092677951,6.78E-06,-0.02380169,-3.08E-10,0.430202633,0.173126325,1.82E-08,-0.224652797,0.600028157,0.243434101,0.968307257,-0.58394742,0.637562752,0.660752714,0.998258829,0.000329243,8.32E-07,-0.980824828,2.76E-07,-0.994793475,-1.29E-07,-0.976399779,-0.039062761,1.45E-09,-0.418842286,1.84E-05,0.374641955,0.992831945,-0.001091371,0.169357106,0.99937433,0.463402808,0.075245716,-0.00028017,-0.960955739,0.073865086,-0.313710421,-0.036065932,0.535292327,0.023246311,0.7629354,-0.199001536,5.31E-18,-0.194399089,4.86E-05,-0.051481441,1.03E-08,-0.001932362,-0.945710421,0.000434452,0.688724458,0.006627478,0
0.000168153,-0.138661265,0.000842266,-0.008973219,0.37906751,0.058509052,-0.10363064,-2.78E-06,-0.428904414,-0.300199747,0.953587472,0.000179527,0.025586776,-0.430597603,5.52E-06,0.625698268,-0.015060855,0.999995351,-0.880701244,-0.308160692,-1.42E-06,-0.001125992,0.473151714,-0.668472946,-2.51E-09,0.001096343,-0.249180242,-0.753884792,0.345140934,-0.040127002,0.047932118,2.09E-05,-0.6247527,0.003876853,-0.999999225,-0.789310634,0.998242497,-0.817586362,0.542790234,0.165221974,-0.021602407,0.138341397,-0.878298044,0.999970734,0.422098577,-0.632113218,0.727080405,0.129144296,-0.159237236,5.76E-06,-0.053347468,-2.48E-10,0.490123868,0.200319767,1.13E-09,-0.324422032,0.426491231,0.430576622,0.961936295,-0.578587413,0.760493875,0.665158033,0.999699056,0.009274908,1.49E-06,-0.995181084,2.10E-07,-0.998264909,-1.06E-05,-0.962116003,-0.149301946,1.37E-09,-0.611151278,4.13E-05,0.220636055,0.585282207,-0.007319286,0.117735237,0.998621583,0.72535193,0.075412676,-2.07E-05,-0.976876676,0.154579461,-0.288092703,-0.005378043,0.539157033,0.04031248,0.59771204,-0.271777272,9.25E-16,-0.247553587,-0.004163,-0.175675809,7.40E-09,-0.00129234,-0.950995743,0.001841652,0.634279132,0.004557429,0
1.91E-05,-0.246150851,0.001224574,-0.01224023,0.426136583,0.118033811,-0.213988721,1.72E-06,-0.459252626,-0.049044475,0.99406296,7.69E-05,0.00667679,-0.448889256,3.84E-06,0.62911576,-0.020377858,0.999920726,-0.925662756,-0.247160286,-7.25E-07,-0.002215571,0.37295565,-0.873574734,-4.50E-10,0.001730455,0.309849441,-0.756356478,0.449093074,-0.023490276,-0.028702969,5.50E-07,-0.591661572,0.078990594,-0.999999642,-0.670000315,0.992979109,-0.884308577,0.52106595,0.13738811,-0.072657429,0.033810135,-0.898127317,0.999908984,0.872167826,-0.582296371,0.838838398,0.026212666,-0.093565747,1.66E-07,-0.046860535,-1.44E-10,0.474077761,0.205845788,2.63E-08,-0.21539329,0.618587911,0.374721646,0.986020923,-0.586734772,0.632922232,0.716974676,0.998991966,0.005878329,1.38E-06,-0.990913451,2.44E-08,-0.997892439,-7.04E-07,-0.961776793,-0.099300638,1.08E-10,-0.399364918,6.11E-05,0.338679641,0.967464685,-0.005929261,0.202954829,0.999022365,0.530356705,0.046654325,-0.306013823,-0.96165961,0.117359594,-0.628060639,-0.019398805,0.577801406,0.073772341,0.676656663,-0.014348204,4.31E-17,-0.230050683,0.013957178,-0.122459032,9.03E-09,-0.001639935,-0.950617254,0.001489965,0.678650916,0.003134463,0
0.000110318,-0.140116572,5.69E-05,-0.005921985,0.611818433,0.050711598,-0.114155613,-1.52E-06,-0.285576105,-0.051229212,0.986937702,0.000253672,0.024439899,-0.273344725,3.17E-06,0.687220514,-0.019849109,0.999999762,-0.879899681,-0.204027623,-6.45E-08,-0.003597837,0.159045532,-0.618997335,-1.15E-08,0.000246065,-0.249180242,-0.917705715,0.380077481,-0.040246934,0.050407447,4.71E-07,-0.58890444,0.100710213,-0.999999762,-0.816070914,0.999438763,-0.81020081,0.099062502,0.196036071,-0.027917465,0.013325196,-0.891302049,0.999947608,0.77341181,-0.436805785,0.908532977,0.12804839,-0.102041543,5.65E-05,-0.038662598,-2.56E-10,0.562673926,0.211245582,2.47E-10,-0.219934091,0.454896778,0.579616725,0.966210306,-0.708138645,0.755891681,0.66530776,0.999562919,0.015432397,2.41E-06,-0.994833648,1.43E-07,-0.99893266,-3.93E-05,-0.869551539,-0.119407229,3.20E-10,-0.64571929,4.88E-05,0.179973349,0.634510338,-0.005137172,0.14179115,0.992729723,0.761855006,0.082949013,-9.44E-05,-0.973391056,0.050604738,-0.382182926,-0.002975856,0.479062587,0.079522938,0.243163243,-0.271708816,6.22E-16,-0.246808097,0.000608292,-0.0454395,7.21E-09,-0.001821265,-0.952947497,0.002666285,0.65530771,0.008640678,0
5.61E-06,-0.188559607,0.003490847,-0.081221849,0.011559526,0.045538504,-0.16113098,1.31E-08,-0.661053717,-0.278149635,0.98598814,0.001602286,0.026879944,-0.407020062,3.02E-06,0.470781684,-0.01160033,0.999991894,-0.923597276,-0.324032009,-9.66E-07,-0.001254381,0.559697151,-0.76391995,-6.57E-11,0.001548206,0.310334861,-0.822357774,0.949079514,-0.044863667,0.421575338,6.53E-09,-0.505016088,0.00424959,-0.999998391,-0.78034091,0.98822391,-0.761223137,0.82138294,0.244196862,-4.53E-05,-0.001028945,-0.831594467,0.999054372,0.788761258,-0.79527998,0.909754455,-0.00792338,-0.113074251,2.27E-06,-0.060147665,-1.41E-07,0.409361959,0.403732061,1.01E-10,-0.864485741,0.30363372,0.201782718,0.99993372,-0.540750325,0.648952603,0.674992323,0.999948442,0.000497003,3.85E-05,-0.999313176,2.67E-07,-0.996964514,-2.36E-06,-0.99287951,-0.130975366,8.50E-10,-0.462964028,0.000433263,0.273835599,0.994252205,-0.003152383,0.080681406,0.871645331,0.996157885,0.077885173,-0.086925328,-0.959088981,0.027842823,-0.524789929,-0.021878816,0.621982992,0.002374787,0.58895582,-0.198554695,3.23E-13,-0.498897552,0.000328757,-0.270707816,2.83E-08,-0.091951482,-0.970764756,0.045228191,0.739468336,0.009154072,0
0.000117049,-0.250184238,0.000315773,-0.024499185,0.376502931,0.141532525,-0.160776198,-1.05E-05,-0.252738595,-0.987168372,0.736517966,0.00077613,0.007227484,-0.46031642,4.86E-05,0.619869053,-0.026051637,0.999997616,-0.927895606,-0.315616816,-2.79E-07,-0.003826105,0.16462639,-0.685097396,-1.18E-09,0.00053509,0.386447668,-0.737789512,0.530660033,-0.178823724,0.311312497,1.76E-06,-0.667577684,0.002995458,-0.999999762,-0.617112398,0.997992635,-0.853365898,0.198405027,0.050541084,-0.216373861,0.0024841,-0.906661987,0.999956071,0.186037526,-0.466607511,0.566960037,0.198918298,-0.031157037,2.77E-06,-0.049213644,-4.10E-08,0.498746961,0.154927745,6.22E-08,-0.259894669,0.693683326,0.220738679,0.994053125,-0.640996397,0.618658304,0.155009449,0.999320328,0.009082759,1.13E-06,-0.988330543,2.26E-08,-0.998992741,-3.34E-05,-0.848978519,-0.114326514,1.07E-09,-0.330304056,0.000264443,0.751929402,0.963583648,-0.028617851,0.268416196,0.994943142,0.630299985,0.042775761,-3.68E-05,-0.986925364,0.191287994,-0.366088599,-0.154713333,0.455812424,0.056808073,0.545901716,-0.098136932,1.79E-17,-0.150171861,-0.010922506,-0.074309655,1.44E-08,-0.001115947,-0.920686722,0.001998173,0.642941117,0.008810207,0
5.85E-05,-0.30770421,4.67E-05,-0.006614326,0.356065631,0.050572138,-0.234309897,-2.00E-09,-0.033897065,0.394739598,0.980273187,0.000480634,0.068461537,-0.176896974,5.46E-07,0.807511806,-0.060687967,0.999999881,-0.943501234,-0.145061687,3.81E-08,-0.004542487,0.005710887,-0.691310644,-3.20E-09,3.88E-06,0.311471343,-0.951197326,0.758483529,-0.003583506,0.571465969,5.16E-09,-0.568339407,0.143473521,-0.999999642,-0.650853872,0.999937773,-0.769147635,0.276357889,0.13426961,-0.019709596,-0.063257359,-0.788439035,0.999934793,0.956601441,-0.345640272,0.988497078,0.166017324,-0.042761255,1.84E-06,0.016829591,-8.51E-10,0.70545423,0.378027737,7.77E-12,-0.257649571,0.372735053,0.672932804,0.999372721,-0.871400297,0.541716635,0.746503592,0.999763489,0.071727231,5.16E-06,-0.995208025,3.87E-09,-0.999090612,-0.008625463,-0.394964457,-0.215512082,7.80E-10,-0.546964645,0.000528937,0.235441551,0.72351408,-0.033336814,0.18300581,0.970439136,0.879711032,0.054080073,-0.208807692,-0.927330673,0.012588758,-0.048907939,-0.006794475,0.63982749,0.205123425,-0.248655051,-0.198064193,4.06E-15,-0.312801808,0.00205405,-0.044825409,3.77E-09,-0.00403282,-0.887093961,0.003981634,0.758144021,0.004908234,0
0.000280471,-0.307972014,2.96E-05,-0.017649876,0.354744524,0.083327524,-0.251295477,-8.48E-09,-0.076261818,0.402780324,0.985496104,0.000345394,0.053386595,-0.098586038,2.78E-07,0.710238218,-0.056333046,0.999999344,-0.943898737,-0.305884838,1.64E-08,-0.005858114,0.043339789,-0.674249709,-1.16E-09,1.69E-05,0.311465889,-0.918561101,0.686786473,-0.004278571,0.701301455,1.17E-08,-0.65253073,0.154267684,-0.999999702,-0.593525469,0.999908864,-0.765694618,0.17672734,0.194868863,-0.013415301,-0.040047109,-0.833479047,0.999938011,0.969729066,-0.413039625,0.992328167,0.167620584,-0.048093062,2.83E-07,0.038556449,-1.14E-11,0.686720371,0.326013207,1.66E-11,-0.259595305,0.5602175,0.606967688,0.998944104,-0.73024404,0.58651793,0.748131812,0.999816477,0.199831307,3.65E-06,-0.995972157,1.77E-09,-0.999057233,-0.379192829,-0.539194465,-0.364677459,2.98E-10,-0.516717553,0.000137507,0.203846216,0.697961807,-0.10063035,0.236907631,0.957644582,0.854803085,0.065740891,-0.122278839,-0.932663202,0.134942025,-0.197760999,-0.005370494,0.702420831,0.22691597,-0.071049325,-0.197549298,1.03E-15,-0.696382582,-0.00191992,-0.01751378,4.08E-09,-0.002145697,-0.913235605,0.007163153,0.75681752,0.004971873,0
4.96E-05,-0.194450229,0.001183076,-0.011047832,0.336373031,0.149303555,-0.139072776,2.89E-05,-0.684604108,-0.200086907,0.982290685,6.88E-05,0.029586243,-0.570672452,1.07E-05,0.554690242,-0.00259751,0.999918163,-0.92118293,-0.331634879,-3.14E-06,-0.001753497,0.609355688,-0.713262081,-3.53E-10,0.002491797,0.310261965,-0.726574838,0.446911871,-0.029536678,-0.008680207,1.14E-05,-0.621846318,0.09533751,-0.999998868,-0.767544568,0.983850956,-0.965343773,0.487630963,0.242251217,-0.088057011,0.003529297,-0.942569673,0.999947786,0.796465397,-0.474269927,0.749947608,-0.038781174,-0.09156055,9.45E-06,-0.033651721,-3.29E-10,0.378701985,0.139389321,8.30E-08,-0.253373206,0.492668182,0.22082901,0.982610226,-0.536867619,0.635268688,0.664283454,0.998802006,0.002705311,5.73E-07,-0.980737448,4.11E-07,-0.991957545,-4.21E-07,-0.988680959,-0.049142502,2.40E-09,-0.432354659,3.16E-05,0.344806165,0.993059397,-0.003357813,0.200277641,0.999710023,0.480919152,0.078307673,-0.001219206,-0.957098782,0.157675236,-0.273325741,-0.037813876,0.481559306,0.018554751,0.774821401,-0.198567644,1.80E-17,-0.18735601,-0.000575248,-0.130281597,9.65E-09,-0.00161037,-0.952069879,0.000605816,0.697035193,0.005884086,0
-7.05E-05,-0.394988,2.62E-05,-0.0428138,0.217718154,0.027339501,-0.257524401,-1.09E-08,-0.364271015,-0.105118737,0.061431564,0.00119798,0.001343672,-0.083970048,3.34E-06,-0.192667663,-0.143011644,0.999995887,-0.164289549,-0.694102764,-2.95E-09,-0.005593695,0.048357602,-0.053628564,-3.80E-15,1.42E-05,0.310778975,-0.986338675,0.793809474,-0.097716399,0.233564809,6.21E-07,-0.783268094,-0.912067413,-0.999999762,-0.450409591,0.999030292,-0.765033484,-0.082195498,0.175329387,-0.131408408,-0.102786802,-0.801786005,0.999778867,2.26E-06,-0.701765239,-0.270549566,-0.023165975,-0.009464364,3.36E-10,-0.021625448,-2.10E-14,0.059979659,0.012618851,1.26E-13,-0.31387037,0.250296265,-0.982847929,0.99991858,0.595366836,0.338850707,0.472788304,-0.843113005,0.899884641,3.03E-06,0.413648069,1.13E-08,-0.999481082,-0.993205726,-0.304407686,-0.091498114,0.439435542,-0.435894817,0.000518188,-0.998641729,0.958440363,-0.979477525,0.068927117,0.909101069,0.886674941,0.003876598,-0.757038891,-0.997712135,0.98879528,0.129915163,-0.008238698,-0.848502517,0.143969551,-0.055497304,-2.27E-17,-4.73E-15,-0.22511965,0.248201564,-0.010738383,-2.20E-09,-0.000883892,-0.569913626,0.010142121,-0.665431738,0.011751685,0
0.000390569,-0.308692515,4.03E-05,-0.25117451,0.042955033,0.049355131,-0.217961043,-1.77E-07,-0.198858887,0.401533425,0.94685936,0.006836765,0.054295089,-0.003046256,1.20E-06,0.692187667,-0.054279055,0.999999642,-0.944396913,-0.159621477,8.31E-08,-0.007734621,0.073887065,-0.698736966,-2.21E-08,7.41E-06,0.311460495,-0.897281229,0.967613816,-0.004152792,0.864945948,3.25E-07,-0.793431222,0.158074185,-0.999999702,-0.585663617,0.999855995,-0.761631429,0.266907007,0.113066293,-5.04E-05,-0.035428908,-0.899919391,0.999934316,0.978767455,-0.480278909,0.998592556,0.170873329,-0.000121753,2.09E-06,0.022921622,-3.42E-11,0.714522779,0.586991668,4.51E-12,-0.739966273,0.07316988,0.629806638,0.99981755,-0.798457205,0.597364366,0.749700963,0.999848962,0.0238408,0.000109425,-0.997302651,1.39E-09,-0.999044359,-0.182947889,-0.736288249,-0.486792862,1.85E-09,-0.550243676,0.000466863,0.309933692,0.622041047,-0.066792861,0.039784998,0.091174074,0.982472062,0.042088468,-0.148929298,-0.886459291,0.013129008,-0.101138778,-0.000334308,0.508640647,0.143327802,-0.056585066,-0.198130891,-4.32E-12,-0.834806383,0.001061977,-0.000568491,3.58E-08,-0.034280904,-0.942982495,0.036353394,0.754813612,0.007812077,0
0.000153466,-0.1383892,0.000270223,-0.008939886,0.511652648,0.064666152,-0.094931267,-6.98E-06,-0.450869501,-0.220525488,0.967846572,9.86E-05,0.025480088,-0.416899413,6.43E-06,0.624343693,-0.012636924,0.999994218,-0.88055557,-0.319005907,-1.40E-06,-0.001866717,0.422863513,-0.682439208,-3.19E-09,0.000961351,-0.249180242,-0.754520833,0.366715521,-0.041007843,0.030876296,2.22E-05,-0.602837384,0.042187482,-0.999999523,-0.794346154,0.998061538,-0.90057683,0.519622684,0.215560451,-0.039816555,0.10544654,-0.91587162,0.99997282,0.577534735,-0.496309042,0.730980158,0.129110992,-0.155265376,2.86E-05,-0.049035028,-5.62E-11,0.482488513,0.17865032,6.82E-10,-0.201969787,0.403426498,0.442596078,0.92406857,-0.578499436,0.756525576,0.66510433,0.999466717,0.005837668,9.09E-07,-0.991921067,5.53E-07,-0.998139501,-4.04E-06,-0.939430952,-0.112628929,1.37E-09,-0.603213727,2.05E-05,0.22943449,0.599116325,-0.015061913,0.145410389,0.998663247,0.626623631,0.069226615,-1.50E-05,-0.975600541,0.20879823,-0.261091828,-0.003627151,0.500539839,0.065344878,0.644545019,-0.271766484,2.09E-16,-0.215850443,-0.004638392,-0.106260382,3.54E-09,-0.000817682,-0.930680275,0.001396913,0.567655742,0.007559838,0
7.11E-05,-0.250364691,0.001217001,-0.004147312,0.442672223,0.125405326,-0.114773028,-4.06E-06,-0.360186487,-0.989950836,0.517725945,0.000137995,0.007195995,-0.483535916,9.51E-06,0.604732871,-0.025921073,0.999998093,-0.928201497,-0.375361264,-2.06E-07,-0.001233634,0.215362042,-0.712036908,-8.36E-10,0.001159621,0.386462182,-0.738173306,0.510387182,-0.179459855,-0.019069374,1.10E-05,-0.696753681,0.000117376,-0.999999762,-0.629322648,0.996698558,-0.914527595,0.295619309,0.036621451,-0.331703007,0.016437182,-0.874197781,0.999950707,0.184118584,-0.531040728,0.278069466,0.157865256,-0.048518412,5.42E-06,-0.077421732,-2.15E-07,0.479347616,0.134150609,7.35E-08,-0.237994656,0.67608285,0.218060657,0.995588899,-0.548401117,0.630274832,0.165180862,0.999082148,0.001762227,5.96E-07,-0.985059977,4.58E-08,-0.998686075,-2.08E-06,-0.922260284,-0.087238237,1.59E-09,-0.34752062,0.000318291,0.705269873,0.966968119,-0.078348383,0.297295153,0.997961283,0.580508053,0.088017039,-0.000150657,-0.984982133,0.395161271,-0.382606179,-0.13915129,0.508396983,0.062398251,0.649174273,-0.098132178,4.26E-18,-0.114321835,-0.011460334,-0.186016232,6.73E-09,-0.000871689,-0.938661695,0.001664927,0.496078253,0.007235427,0
1.55E-05,-0.198933199,0.000412051,-0.006664874,0.338702828,0.063041627,-0.183713064,9.00E-07,-0.489316881,0.072432965,0.996388972,8.33E-05,0.024451833,-0.216152042,1.75E-06,0.741210818,-0.008851011,0.999997735,-0.911172032,-0.483555555,1.10E-08,-0.005003689,0.230886996,-0.653216064,-9.04E-11,8.17E-05,0.310363263,-0.935696602,0.532373905,-0.045919418,0.547491968,9.95E-09,-0.616925478,0.144902214,-0.999998748,-0.752937734,0.998321533,-0.793761194,0.095610552,0.388970017,-0.062962689,-0.019833189,-0.916807771,0.99990505,0.933904469,-0.932459235,0.949696541,0.035706889,-0.143848583,3.70E-06,0.04558792,-3.27E-11,0.537087381,0.240774229,8.36E-09,-0.298086494,0.59738028,0.491327852,0.991794169,0.823573828,0.640100479,0.661749601,0.999137759,0.032875311,9.74E-06,-0.991723835,6.28E-08,-0.998792648,-0.000221787,-0.845697641,-0.161748335,8.52E-11,-0.499245316,0.000180079,0.213209674,0.995292068,-0.074176341,0.060634553,0.991627693,0.779158115,0.066951036,-0.014042951,-0.9497931,0.993691921,-0.685824394,-0.00708722,0.54132241,0.060847778,0.606230676,-0.198788881,1.67E-16,-0.405461758,6.87E-05,-0.018579619,4.66E-09,-0.001643197,-0.905931056,0.013511082,0.678686321,0.0097608,0
0.000286804,-0.138698876,0.002788838,-0.003161,0.480116636,0.064572833,-0.089401901,0.000167634,-0.447597623,-0.523381829,0.887117982,0.000120524,0.025697861,-0.617755711,2.84E-06,0.515859365,-0.006568478,0.999980867,-0.881685555,-0.295689225,-3.49E-06,-0.001230009,0.631293952,-0.681916416,-5.68E-09,0.012697241,-0.249176919,-0.830695748,0.292128891,-0.039678656,-0.043348253,0.000152907,-0.657307625,0.001086657,-0.999997675,-0.791219413,0.98372227,-0.974969804,0.578163266,0.070553198,-0.047679834,0.188025013,-0.885094583,0.999788046,0.525163531,-0.6297158,0.639422357,0.130475596,-0.152163371,1.55E-06,-0.094021238,-9.97E-11,0.335101932,0.119059876,8.34E-11,-0.231866479,0.426076323,0.187275723,0.877378225,-0.586525142,0.729435563,0.662881076,0.998213172,0.005232885,2.62E-06,-0.984348834,2.50E-07,-0.996335506,-4.74E-07,-0.988486171,-0.068371683,2.43E-09,-0.577388346,8.20E-06,0.21556142,0.427632183,-0.004807948,0.112752728,0.99982655,0.472021788,0.094454549,-0.000279744,-0.97185874,0.189366892,-0.410039961,-0.011566773,0.456593364,0.025120378,0.724072874,-0.271755457,1.65E-16,-0.192871451,-0.000554729,-0.171974257,6.85E-09,-0.00280177,-0.977115631,0.00106341,0.632874727,0.004558726,0
2.08E-07,-0.072401561,0.000217169,-0.002918574,0.598060369,0.037999872,-0.26471141,3.00E-05,-0.591713428,-0.970653892,0.989222229,7.32E-05,0.007793835,-0.281927019,5.07E-08,0.632299662,-0.03015442,0.999998987,-0.909987092,-0.299228311,4.75E-08,-0.002282006,0.340783626,-0.547353089,-2.21E-10,0.000453492,0.018356426,-0.917787135,0.313122362,-0.057830084,0.616030097,2.12E-06,-0.611134052,0.060529601,-0.999998808,-0.844303191,0.999136627,-0.850969553,-0.098003007,0.185064554,-0.109534286,0.086818695,-0.899484396,0.999892533,0.74884969,-0.834994733,0.907131791,0.079267569,-0.15889971,2.20E-06,-0.067920536,-1.32E-12,0.528223693,0.157687232,1.19E-10,-0.197232038,0.200031996,0.322980523,0.920996487,-0.281279802,0.742510796,0.181485862,0.99723798,0.230744138,1.44E-06,-0.987287581,6.64E-07,-0.998518705,-0.064987652,-0.934911132,-0.188247293,9.86E-11,-0.6629017,9.36E-05,0.107142285,0.867838085,-0.168292984,0.06615454,0.997350037,0.742295146,0.073134094,-1.30E-06,-0.977374077,0.97215277,-0.684251368,0.000915983,0.54472971,0.193665862,0.653224766,-0.489715457,3.81E-16,-0.330565572,-0.011075788,-0.054356195,2.49E-09,-0.00056402,-0.94883728,0.003765123,0.494289756,0.013934809,0
5.94E-05,-0.308614016,7.67E-06,-0.050284743,0.011467757,0.049450867,-0.294479162,-6.16E-10,-0.266516715,0.387979925,0.944494367,0.002643122,0.032319043,-0.004591037,9.00E-08,0.687123954,-0.056693263,0.999999702,-0.944921017,-0.169316933,-9.58E-09,-0.015032067,0.069076784,-0.667145729,-2.61E-10,1.42E-06,0.311468095,-0.923649848,0.984552443,-0.00750508,0.977073908,4.64E-10,-0.758580863,0.084389828,-0.999999702,-0.585094035,0.999909759,-0.761604905,0.153214648,0.176017433,-6.77E-06,-0.054506466,-0.87039125,0.999943674,0.985165179,-0.47529763,0.999014616,0.167984962,-0.003533189,7.41E-07,0.006708682,-1.37E-11,0.718358994,0.425541043,9.34E-13,-0.793663263,0.078789435,0.544033945,0.999940336,-0.76301074,0.585102022,0.752185047,0.999876261,0.244235352,2.07E-05,-0.998943686,1.47E-09,-0.999011993,-0.49853301,-0.675078988,-0.557175279,2.71E-10,-0.562314212,0.000456828,0.206594601,0.705122232,-0.171174362,0.047794234,-0.597147703,0.99518919,0.055048078,-0.304256499,-0.918266177,0.010809744,-0.308681518,-0.000501696,0.776531994,0.040998738,-0.037546031,-0.197719395,-8.18E-13,-0.849007785,-0.002088144,-0.000231067,4.51E-09,-0.005686947,-0.868793786,0.080529757,0.76402992,0.01575285,0
0.000231874,-0.139292136,0.000295037,-0.01187972,0.541213572,0.065710403,-0.096292995,-4.58E-06,-0.41767028,-0.279800504,0.971843302,0.000171853,0.025103312,-0.45387423,5.57E-06,0.645560503,-0.015535421,0.999996364,-0.880623698,-0.290082455,-5.02E-07,-0.002571903,0.421737224,-0.669272125,-4.39E-09,0.001419044,-0.249180242,-0.760054827,0.36821118,-0.041192267,0.003943245,1.73E-05,-0.583458722,0.057295077,-0.999999523,-0.793856204,0.998398602,-0.916530907,0.455816746,0.192581192,-0.03958049,0.112169385,-0.914749026,0.999967277,0.625618577,-0.511822522,0.71181339,0.130175486,-0.084802344,2.65E-05,-0.065048903,-2.47E-11,0.503374815,0.180869013,3.02E-10,-0.210420966,0.370834351,0.45451501,0.893491328,-0.58788383,0.755928576,0.665133357,0.999269426,0.006450291,1.80E-06,-0.992950141,3.72E-07,-0.99835217,-4.03E-06,-0.934508145,-0.10834495,1.63E-09,-0.621059835,1.77E-05,0.23509267,0.534976184,-0.004195506,0.133949086,0.998885453,0.628221035,0.072871104,-1.17E-05,-0.977182567,0.160629392,-0.226409569,-0.004399187,0.519021988,0.057187453,0.626467466,-0.271768779,3.71E-16,-0.220190674,-0.002207428,-0.083925255,5.07E-09,-0.001051644,-0.944178522,0.001373623,0.599024892,0.006618398,0
0.00048952,-0.308025122,0.000118116,-0.011276389,0.166798308,0.075595535,-0.223431572,-2.80E-08,-0.123814486,0.395080835,0.986892402,0.000765149,0.051544353,-0.234703019,1.33E-06,0.681390584,-0.054630544,0.999998927,-0.945008636,-0.181731328,1.33E-08,-0.006574474,0.073940083,-0.69732672,-3.32E-09,3.98E-05,0.311462432,-0.864982426,0.568201542,-0.004377693,0.771796167,9.27E-09,-0.638498604,0.146716297,-0.999999702,-0.567747474,0.999852896,-0.764882147,0.203797951,0.122138806,-0.004227628,-0.029054882,-0.849269748,0.99993968,0.977569878,-0.532189012,0.987284243,0.170077205,-0.051485617,9.24E-07,0.041117486,-6.17E-11,0.69960916,0.328381538,1.29E-11,-0.369572401,0.589884698,0.642908633,0.998550594,-0.767886341,0.595670402,0.74585706,0.999836147,0.061097953,8.05E-06,-0.997308969,1.56E-09,-0.99903506,-0.045275424,-0.681022763,-0.379259109,5.79E-10,-0.559632361,7.52E-05,0.212456301,0.630064487,-0.018675348,0.142649397,0.962337911,0.870292306,0.047746919,-0.070663638,-0.92204529,0.028215133,-0.162420094,-0.002616721,0.676861346,0.045967363,-0.02214363,-0.198046312,3.45E-15,-0.51309818,-0.000761465,-0.027964791,5.34E-09,-0.00199987,-0.943625689,0.00690743,0.761889279,0.003504087,0
2.01E-05,-0.211876571,0.002295895,-0.034432016,0.205421388,0.164610252,-0.15838477,2.58E-06,-0.606726408,-0.090949252,0.99348402,3.53E-05,0.006940174,-0.437990755,3.14E-05,0.529764414,-0.015253741,0.999877393,-0.934910655,-0.23171258,-5.01E-06,-0.002832333,0.534515142,-0.851137877,-7.41E-11,0.003399039,0.309972435,-0.783903956,0.563986361,-0.015742794,0.026804345,5.47E-06,-0.497583896,0.02524833,-0.999999523,-0.723855913,0.991205215,-0.883393347,0.849049807,0.382624805,-0.035217334,0.038983341,-0.93181318,0.999903679,0.695181847,-0.375754625,0.884553313,0.08860331,-0.141733229,5.70E-07,-0.013448624,-4.19E-11,0.505366087,0.138859853,4.95E-08,-0.292790651,0.429470301,0.229204163,0.987278581,-0.624150395,0.623989522,0.6959095,0.999425888,5.98E-05,4.77E-07,-0.99079448,3.83E-07,-0.996079028,-3.04E-08,-0.982890427,-0.062467348,1.85E-10,-0.421238482,6.92E-05,0.114664286,0.902294993,-0.012662318,0.151060775,0.998474002,0.621578991,0.053702407,-0.699406207,-0.96036303,0.03796681,-0.516568244,-0.00614066,0.507314146,0.030673208,0.744079769,-0.027065307,2.26E-16,-0.27865535,0.007386957,-0.090871125,1.37E-08,-0.00360553,-0.955797851,0.000859065,0.689872563,0.006570659,0
1.11E-05,-0.248282135,0.000364171,-0.43606624,0.121413961,0.35423997,-0.205437243,-2.57E-08,-0.541704535,0.18467778,0.965358794,7.54E-05,0.009629083,-0.033834141,6.82E-06,0.663558602,-0.020895949,0.999984086,-0.930413902,-0.414373457,-7.91E-09,-0.009867836,0.344683826,-0.838218689,-9.17E-11,2.04E-05,0.310032904,-0.955599308,0.827896833,-0.012833892,0.716515243,5.40E-07,-0.734143794,0.044280589,-0.999999225,-0.619276166,0.998232543,-0.762546897,0.745388389,0.646396637,-0.003897452,-0.048173498,-0.884351969,0.999891102,0.822460592,-0.711557269,0.994652212,-0.028904885,-0.055153824,2.64E-08,0.054784313,-3.63E-10,0.602923214,0.430598259,2.80E-09,-0.585864007,0.644567013,0.347159445,0.999096453,-0.555348933,0.640016079,0.730928957,0.99966538,0.035967767,4.24E-07,-0.995763958,5.50E-10,-0.998811722,-0.000438421,-0.915968657,-0.392655522,5.36E-11,-0.490181088,0.0001296,-0.029957326,0.960761189,-0.038087271,0.317869663,0.925035715,0.835469604,0.071965881,-0.711526334,-0.954925716,0.495954841,-0.644664764,-0.008541917,0.78415525,0.180660099,0.561120391,-0.024896165,3.07E-18,-0.928530335,0.001754399,-0.002945347,1.29E-08,-0.086497277,-0.865047395,0.004423387,0.746631384,0.002837679,0
2.64E-06,-0.131241515,0.000244457,-0.004184678,0.64533937,0.058414746,-0.144827455,-2.45E-05,-0.247572064,-0.997653961,0.666270256,0.000164047,0.008892343,-0.322436988,4.61E-07,0.638253987,-0.033561621,0.999999762,-0.907855809,-0.175893083,-1.00E-07,-0.003453009,0.092130415,-0.595139444,-1.49E-08,0.000281607,0.310703158,-0.893248677,0.320435822,-0.129372805,0.278939307,2.17E-06,-0.627600551,0.000244924,-0.999999702,-0.772898495,0.999581933,-0.804958582,-0.01409083,0.08164262,-0.158734217,0.05387548,-0.894060552,0.999910712,0.195435032,-0.443485916,0.823288202,0.127799362,-0.07930816,1.29E-06,-0.071901098,-3.45E-08,0.571433187,0.141785309,4.78E-09,-0.1813934,0.365386903,0.373473495,0.976137698,-0.709285617,0.623230934,-0.997380376,0.998652577,0.027812086,3.13E-06,-0.993275523,1.26E-08,-0.999143243,-7.96E-05,-0.818565845,-0.101134486,6.25E-11,-0.582942843,0.000270667,0.183521494,0.907215416,-0.034155753,0.300989985,0.993136823,0.748102427,0.06442555,-0.014868848,-0.988738298,0.142380282,-0.628574669,-0.011197414,0.397548348,0.025443221,0.33130005,-0.199127331,1.25E-16,-0.130251914,-0.004138905,-0.079938926,3.19E-09,-0.001361071,-0.954307854,0.004188702,0.659005404,0.014670066,0
-4.51E-05,-0.394994199,1.48E-05,-0.105173394,0.084766209,0.023182949,-0.262385994,-1.19E-08,-0.440843016,-0.067649946,0.02611045,0.001401844,0.001346244,-0.046775058,8.91E-06,-0.146696106,-0.141897157,0.999995589,-0.164245963,-0.702163339,-3.72E-09,-0.006871208,0.053660881,-0.053783819,-1.85E-15,5.42E-06,0.310781538,-0.986750484,0.857204735,-0.097719274,0.567473352,4.41E-07,-0.837426305,-0.912330389,-0.999999762,-0.452822238,0.999126494,-0.762410998,-0.057320479,0.142472208,-0.015296834,-0.080941193,-0.818059266,0.999765694,2.34E-06,-0.683244944,-0.270510256,0.021125453,-0.004689157,3.81E-10,0.068217099,-1.84E-14,0.060171761,0.024422403,3.88E-14,-0.531295538,0.093242623,-0.982407331,0.999952018,0.592356563,0.33891207,0.47287178,-0.839476705,0.951009095,3.57E-06,0.408815205,1.48E-06,-0.999482751,-0.993003845,-0.403056562,-0.142050564,0.438980728,-0.452154547,0.000667381,-0.998423934,0.958351672,-0.978464127,0.049611371,0.508674145,0.942703366,0.007065501,-0.757038534,-0.997723401,0.987119853,0.110203579,-0.001450782,-0.847317219,0.053602833,-0.050934426,-1.15E-18,-4.69E-14,-0.352497458,0.203045815,-0.00323131,-2.25E-09,-0.002586779,-0.543677747,0.020717768,-0.665029466,0.015387738,0
0.000154737,-0.138362512,7.65E-05,-0.014188205,0.499422848,0.063993819,-0.105626017,-2.29E-06,-0.455622435,-0.157875299,0.988915861,0.000137204,0.02570438,-0.308341235,1.33E-05,0.663701177,-0.014144884,0.999996364,-0.880542219,-0.369639844,3.23E-07,-0.003244199,0.41492793,-0.673264265,-2.73E-09,0.000412866,-0.249180242,-0.770917892,0.456096411,-0.038840201,0.076299235,8.32E-06,-0.554115593,0.102320045,-0.999999225,-0.802970231,0.998306692,-0.84356153,0.55447191,0.28605774,-0.032841589,0.071218938,-0.925874412,0.999972999,0.743802905,-0.484639764,0.866313219,0.129126996,-0.128146425,4.37E-05,-0.018648343,-2.84E-10,0.504682302,0.217435747,1.17E-09,-0.216591269,0.431821644,0.498879373,0.950376928,-0.559180677,0.754305959,0.664812326,0.999501705,0.009003591,1.08E-06,-0.994597018,3.52E-07,-0.998323739,-5.54E-06,-0.903889477,-0.138383597,8.50E-10,-0.614200175,2.61E-05,0.21361275,0.613840699,-0.01175671,0.137811542,0.996521831,0.750357747,0.066705674,-3.53E-05,-0.972214818,0.26828444,-0.31136474,-0.002862993,0.534836054,0.09991011,0.627985418,-0.271718532,1.98E-16,-0.269947678,-0.008095218,-0.04892147,2.66E-09,-0.000804411,-0.934867978,0.002267802,0.557119668,0.010147145,0
1.67E-05,-0.246916234,0.000570656,-0.028105462,0.389596194,0.075327516,-0.211184695,2.21E-06,-0.462476701,-0.033308122,0.995937765,6.61E-05,0.006637793,-0.460328698,8.77E-06,0.635367513,-0.025826531,0.999940276,-0.913843155,-0.255251408,-1.61E-06,-0.00353395,0.333702505,-0.868061841,-1.55E-09,0.001020603,0.310158134,-0.770610988,0.415378928,-0.025595037,-0.042850181,2.44E-07,-0.55465883,0.100473017,-0.999999702,-0.6472736,0.995839179,-0.890789092,0.544042587,0.165536642,-0.047198147,0.067141026,-0.927760959,0.99987489,0.839749932,-0.478025407,0.890207052,0.084003754,-0.096781082,7.10E-07,-0.008265475,-4.11E-10,0.528316438,0.3174932,5.92E-09,-0.204130739,0.495504409,0.381670326,0.973611236,-0.631544292,0.616362929,0.71719414,0.999052584,0.00091331,1.55E-06,-0.988315165,7.29E-08,-0.998277605,-8.70E-07,-0.941901267,-0.085161887,5.83E-11,-0.414852083,4.80E-05,0.060967032,0.94131887,-0.003705844,0.184733838,0.998346388,0.541329324,0.052229039,-0.578352809,-0.966748595,0.065141208,-0.648533702,-0.010247508,0.538085282,0.049170922,0.676552832,-0.059940007,1.10E-16,-0.244369939,0.009855233,-0.058527872,1.38E-08,-0.001470799,-0.929734886,0.001163485,0.693990171,0.004150813,0
1.33E-05,-0.215701282,7.94E-05,-0.023648059,0.399035245,0.09019094,-0.174891829,-2.86E-07,-0.460953712,0.007644641,0.995464742,4.19E-05,0.005510764,-0.262955159,2.00E-05,0.659410477,-0.042609513,0.999990642,-0.923999488,-0.171455771,-2.04E-07,-0.004821843,0.21555385,-0.857273579,-6.19E-10,2.74E-05,0.310578346,-0.880153894,0.44004482,-0.030986983,0.021925978,1.30E-07,-0.530852616,0.11983189,-0.999999702,-0.733436346,0.998514354,-0.796316564,0.499430567,0.23024419,-0.024258818,0.016666997,-0.903407276,0.999885082,0.945001245,-0.442938894,0.983541965,0.011861929,-0.156367242,6.52E-07,0.039018821,-3.04E-10,0.55220294,0.295825779,3.02E-08,-0.235559657,0.504207373,0.484482795,0.989263237,-0.731140196,0.604689777,0.689827681,0.999543488,0.001562914,6.53E-07,-0.991302431,4.77E-08,-0.998760164,-8.17E-07,-0.859663069,-0.15215902,1.59E-11,-0.496374309,0.000144459,0.019830016,0.973410606,-0.021294208,0.135454237,0.990375161,0.62395668,0.053062115,-0.708460867,-0.967661083,0.012909766,-0.698088884,-0.005700754,0.548951387,0.046942957,0.558258832,-0.000837057,2.52E-17,-0.245221511,-0.002022893,-0.027401404,5.10E-09,-0.002006896,-0.887913346,0.002800887,0.697118938,0.004501018,0
0.005708215,-0.166698217,0.000161415,-0.197186038,0.07613641,0.428963929,-0.35225746,-5.77E-10,-0.721521378,-0.592809081,0.989229977,3.28E-05,0.030211233,-0.036073796,7.15E-08,0.411870122,-0.086714037,0.999944985,-0.94317776,-0.386558741,4.87E-09,-0.0054577,0.803967834,-0.285077512,-4.76E-12,0.000229017,-0.233124897,-0.998267949,0.865568399,-0.027761368,0.228363886,0.011817923,-0.817275286,0.187665582,-0.999990106,-0.589526474,0.999942303,-0.76765281,-0.17723611,0.881157517,-0.001954648,0.009743825,-0.85542959,0.999949038,0.970680773,-0.395599246,0.998585284,0.055547807,-0.143804878,1.06E-08,0.002548922,-7.60E-17,0.733860195,0.272265136,1.76E-15,-0.397806287,0.72356534,0.287954777,0.993430614,-0.710095823,0.632829785,0.487622291,0.999296606,0.996756017,2.16E-07,-0.999323726,1.59E-07,-0.997462094,-0.921180606,-0.926436186,-0.251953155,8.11E-10,-0.823612332,5.50E-07,-0.06225162,-0.565440834,-0.173367456,0.111074775,0.952102423,0.943095088,0.109735377,-0.185691282,-0.989650309,0.224438667,-0.28923437,-0.000282982,0.229397565,0.23813054,0.504481733,-0.154944822,1.12E-15,-0.946209013,0.413290113,-0.00312893,-5.53E-12,-0.015694795,-0.903564036,0.002263861,0.735027313,0.029849462,0
4.83E-06,-0.215824917,8.42E-05,-0.027353462,0.23922348,0.019715657,-0.294817656,-3.80E-10,-0.093373537,0.121693216,0.074944556,0.000397287,0.004538358,-0.223084569,1.73E-06,0.661460698,-0.05155427,0.999998212,-0.764077365,-0.239265725,-9.88E-09,-0.006642855,0.039508801,-0.79793483,-1.08E-11,1.26E-05,0.310925484,-0.915151238,0.914771557,-0.031240107,0.810973883,2.89E-10,-0.397839308,-0.903407633,-0.999999702,-0.808276355,0.999008119,-0.762031317,0.296652257,0.225186303,-0.004057777,-0.037748974,-0.830783725,0.999816716,3.18E-08,-0.397741199,-0.683154523,-0.01355671,-0.2971825,8.49E-08,-0.007668399,-1.12E-09,0.521434128,0.052515082,7.33E-11,-0.530729413,0.230567709,-0.077271238,0.999842525,-0.673592091,0.577396989,0.688023865,0.999799252,0.055650547,9.11E-06,0.296466589,4.82E-09,-0.99896282,-0.000210697,-0.700755596,-0.415707707,1.12E-10,-0.566696703,0.001155318,-0.996645927,0.884095728,-0.007001863,0.122145757,0.96124804,0.97425586,0.048474867,-0.760044873,-0.984672368,0.043457802,-0.609460056,-0.014628089,0.660755336,0.01647551,-0.056713685,-1.28E-17,9.35E-14,-0.213201016,-0.002857947,-0.068603992,3.26E-08,-0.003523053,-0.792791665,0.033802334,0.74411875,0.01205967,0
2.45E-06,-0.131250113,0.000172241,-0.003823238,0.642801583,0.063246168,-0.146884486,-1.77E-05,-0.187944874,-0.997665524,0.510658205,9.02E-05,0.008896019,-0.335676819,2.27E-07,0.637423217,-0.032800157,0.999999762,-0.906537175,-0.168480679,-1.00E-07,-0.003343224,0.084394976,-0.594169557,-1.97E-08,0.000230829,0.310703218,-0.890976489,0.321455359,-0.129348233,0.246073693,1.95E-06,-0.615434945,5.49E-05,-0.999999702,-0.762172401,0.999575853,-0.819478691,-0.022056684,0.096343406,-0.149819642,0.083327167,-0.900594056,0.999911904,0.154181853,-0.403775841,0.775054514,0.125744909,-0.083723217,1.49E-06,-0.050201077,-3.79E-08,0.572135568,0.140286997,7.36E-09,-0.176987737,0.368334115,0.37067607,0.974436402,-0.708581209,0.626158178,-0.997407973,0.998666227,0.028035732,2.41E-06,-0.991011679,1.77E-08,-0.999140322,-5.79E-05,-0.803891897,-0.101378582,5.30E-11,-0.585235059,0.000223347,0.175197005,0.905218244,-0.032335091,0.291572124,0.993241191,0.741921484,0.080079205,-0.016805092,-0.98885572,0.134647548,-0.629715383,-0.010557001,0.383266062,0.032080729,0.339219987,-0.199150756,8.98E-17,-0.121530816,-0.00364688,-0.072456166,3.15E-09,-0.00125568,-0.953586459,0.003930509,0.655222297,0.016317099,0
4.99E-06,-0.266136795,1.34E-05,-0.019130263,0.09818083,0.048344307,-0.288483948,-7.65E-10,-0.166782111,0.052378152,0.975877404,0.000685442,0.01039552,-0.122040063,7.14E-07,0.785388112,-0.067785658,0.999999523,-0.950175226,-0.212896302,-8.81E-09,-0.006409253,0.026900636,-0.689182997,-1.15E-10,5.67E-07,0.311324328,-0.938634515,0.892756343,-0.032407477,0.831365705,1.79E-10,-0.239607573,0.111234412,-0.999999821,-0.716739357,0.999812543,-0.76192838,0.010290007,0.198838994,-0.00142485,0.001710313,-0.807135284,0.999855995,0.979951203,-0.421828359,0.998497784,0.119587578,-0.221957549,2.14E-07,0.044895764,-5.27E-11,0.627264857,0.498316199,3.34E-12,-0.479183376,0.425723135,0.474527568,0.999935389,-0.853824675,0.571548104,0.623800814,0.999879122,0.975296557,5.72E-07,-0.995339096,2.12E-08,-0.999085426,-0.386532038,-0.459191561,-0.384238154,1.21E-11,-0.566126347,0.000797586,-0.056836996,0.822975695,-0.039615229,0.103004575,0.944524527,0.984013379,0.031645246,-0.724090338,-0.976879954,0.007640257,-0.524133027,-0.003635603,0.726349235,0.090033352,-0.076677576,-0.157822013,1.02E-14,-0.487008542,0.013900295,-0.026439682,1.37E-09,-0.002404439,-0.81259042,0.018717907,0.756963611,0.008832561,0
2.83E-06,-0.131320253,0.000124238,-0.003597886,0.629921913,0.050084945,-0.145851046,-1.88E-05,-0.145496696,-0.997413635,0.626583636,0.000113358,0.008858518,-0.35213837,1.72E-07,0.64179945,-0.033359118,0.999999762,-0.905638695,-0.166900918,-1.45E-07,-0.00290996,0.071534328,-0.595959127,-2.45E-08,0.000252002,0.310701907,-0.892366827,0.315925658,-0.1293253,0.097705498,1.45E-06,-0.604353487,0.000285846,-0.999999702,-0.759388983,0.999510229,-0.844856501,-0.047146548,0.088907391,-0.144358963,0.071801104,-0.901495337,0.999911189,0.203605235,-0.359247297,0.802466571,0.127835751,-0.093898453,2.56E-06,-0.03227425,-4.26E-08,0.58461827,0.149382174,6.60E-09,-0.169480324,0.366985977,0.344108105,0.974264324,-0.720018566,0.618348598,-0.997571111,0.998500228,0.021850482,2.85E-06,-0.990592301,1.89E-08,-0.999146879,-2.31E-05,-0.800745547,-0.078276202,5.91E-11,-0.57883811,0.00019978,0.175930679,0.895358324,-0.020930642,0.273993462,0.994329572,0.747857153,0.096052192,-0.019364633,-0.98886919,0.095246561,-0.64469707,-0.0097941,0.371233344,0.040670138,0.289994806,-0.199110076,1.45E-16,-0.10279844,0.010398601,-0.075599596,4.18E-09,-0.001071625,-0.957732439,0.003280857,0.653095007,0.01874684,0
1.28E-05,-0.266052067,7.21E-05,-0.029451789,0.039536968,0.089251027,-0.29158622,-3.06E-08,-0.13282901,0.03730876,0.958167791,0.000927908,0.010572298,-0.034902949,4.75E-08,0.81881541,-0.07080061,0.999999762,-0.950093687,-0.230329022,7.02E-10,-0.009906918,0.035459071,-0.673030257,-1.41E-09,3.82E-07,0.311329812,-0.990604758,0.872442305,-0.031462166,0.734025836,2.86E-09,-0.66418308,0.091214448,-0.999999821,-0.65382725,0.99991107,-0.762131989,0.035631742,0.153774142,-0.002385224,-0.019737083,-0.812443614,0.999831378,0.9667117,-0.423228323,0.999022126,0.13712351,-0.013120702,1.04E-07,0.038666718,-1.95E-13,0.641620159,0.514260054,4.29E-12,-0.514310241,0.523706377,0.551118851,0.999917388,-0.883594155,0.551646411,0.62460953,0.999874711,0.99005264,2.22E-06,-0.996961772,8.62E-10,-0.99911052,-0.527893722,-0.364876151,-0.485233992,1.38E-11,-0.510885537,0.000822821,0.008481947,0.758542776,-0.066647612,0.135890707,0.817605376,0.956004441,0.038954593,-0.716467321,-0.9660604,0.008017995,-0.513448,-0.005170864,0.772131026,0.287635088,-0.092359267,-0.17599538,2.19E-15,-0.850003183,0.040865432,-0.001316871,5.25E-09,-0.005619671,-0.83481276,0.012101011,0.76491046,0.00235685,0
3.12E-05,-0.183877274,0.001482142,-0.005798035,0.334961385,0.161822781,-0.134594023,5.72E-05,-0.588283122,-0.329448462,0.933145225,2.75E-05,0.031569749,-0.581624389,7.00E-05,0.45797348,-0.00199626,0.999898851,-0.922356188,-0.342085868,-3.66E-06,-0.000909356,0.663920343,-0.700605214,-7.98E-12,0.003603104,0.31025967,-0.719334662,0.486976027,-0.02882223,-0.030789774,5.91E-05,-0.653650045,0.016880108,-0.999998391,-0.778425813,0.975576639,-0.939681888,-0.242896006,0.318381071,-0.204011604,0.036120761,-0.938751161,0.999957502,0.701063216,-0.481063277,0.585133612,-0.141314343,-0.136153802,6.43E-06,-0.040093854,-4.89E-10,0.317502916,0.113026991,6.21E-07,-0.200042456,0.314013302,0.191689491,0.94846952,-0.493939966,0.632558227,0.685300946,0.996699691,0.002947448,2.68E-07,-0.95243299,2.51E-07,-0.984887302,-2.30E-06,-0.993209839,-0.046914082,5.55E-09,-0.416498423,2.94E-05,0.3246876,0.99793154,-0.007474028,0.243256778,0.999794543,0.255647957,0.08043249,-0.001040715,-0.96091789,0.280020416,-0.248328134,-0.060909599,0.467229545,0.024486991,0.801081121,-0.198809117,6.96E-18,-0.15276733,0.000246827,-0.138510689,9.18E-09,-0.002269999,-0.955209553,0.001093102,0.695064068,0.006512761,0
-6.97E-05,-0.389543116,1.67E-05,-0.051178731,0.200277746,0.026882818,-0.258600384,-1.61E-08,-0.151761517,-0.088644341,-0.024074094,0.000490922,0.001678013,-0.065795749,3.60E-07,0.524329424,-0.145758212,0.99999696,-0.163431361,-0.562039435,-1.25E-08,-0.003416974,0.010313528,-0.053842325,-1.52E-12,7.99E-06,0.310740024,-0.994006693,0.881734014,-0.097211398,0.281007081,2.22E-07,-0.798917234,-0.907049656,-0.999999762,-0.59227258,0.999345422,-0.763856411,-0.032920823,0.274328083,-0.138101056,-0.047025017,-0.775868416,0.999868393,2.79E-05,-0.284310728,-0.271905333,-0.290814698,-0.015118718,6.07E-09,-0.018644657,-2.13E-14,0.127757713,0.013931422,1.61E-13,-0.282807827,0.222230539,-0.971904159,0.999956548,-0.089045681,0.338817865,0.47223413,-0.831875265,0.93439585,6.23E-06,0.223861605,1.07E-05,-0.999473631,-0.99675107,-0.303257853,-0.13332969,0.440843314,-0.481395364,0.000989474,-0.996590495,0.958564281,-0.944773495,0.294633508,0.844787002,0.896876812,0.021114806,-0.757038713,-0.998741925,0.841654837,-0.032056604,-0.008435796,-0.951990664,0.205142781,-0.194248945,-5.50E-17,-1.64E-14,-0.373853475,0.656268299,-0.008818778,8.04E-09,-0.007951243,-0.658935666,0.008149322,-0.664829969,0.016786408,0
-3.49E-06,-0.400475085,8.93E-05,0.00033998,0.38958925,0.033091165,-0.269175768,-2.73E-06,-0.607286334,-0.67273587,0.388894141,0.000100994,0.001925153,-0.363318175,2.12E-06,-0.00116183,-0.073022559,0.999895096,-0.16281119,-0.672822237,-2.39E-06,-0.002785288,0.474173754,-0.052221756,-2.45E-17,0.010088708,0.309714586,-0.880926907,0.467613667,-0.092101797,0.0652785,6.46E-05,-0.554350615,-0.803413272,-0.999999762,-0.670680702,0.071854614,-0.815292418,-0.356178433,0.174216717,-0.345790684,0.019695712,-0.894265056,0.999795914,1.95E-06,-0.811184585,-0.26289168,-0.10316956,-0.143451631,2.40E-09,-0.185316533,-2.03E-12,0.043330181,0.006457198,3.07E-10,-0.207282931,0.265391201,-0.310168654,0.991379082,0.538032532,0.344196826,0.468128979,-0.815901637,0.956898391,2.67E-06,0.238730952,2.56E-05,-0.998739839,-0.895335853,-0.939448774,-0.041249827,0.385936499,-0.429223895,7.54E-05,-0.99640429,0.958900452,-0.297227859,0.156108826,0.999126315,0.664980769,-0.008051864,-0.757033944,-0.988018513,0.995551586,-0.029130464,-0.017975813,-0.005744793,0.179435194,0.67504555,-1.23E-13,1.28E-14,-0.159544602,0.005495152,-0.082214728,-4.29E-09,-0.001765935,-0.817716122,0.002509028,-0.577774465,0.013074948,0
0.000717799,-0.307874143,7.03E-05,-0.004806194,0.5076437,0.040319808,-0.228904083,-5.64E-08,-0.092074752,0.393094271,0.991393209,0.000291885,0.05426529,-0.317756206,9.36E-07,0.70792836,-0.056267485,0.999999225,-0.944122136,-0.180366546,2.05E-07,-0.002632872,0.043753367,-0.70567137,-5.33E-09,7.28E-05,0.311465204,-0.860176921,0.392826855,-0.004277102,0.421654582,2.00E-08,-0.594730735,0.185641274,-0.999999821,-0.573658347,0.999855459,-0.792385459,0.174067721,0.080368102,-0.034999974,-0.014749491,-0.85050112,0.999938428,0.962806523,-0.41401583,0.948658586,0.169232771,-0.117583349,4.81E-06,-0.036934175,-1.38E-10,0.685481668,0.265951127,7.48E-12,-0.20965004,0.625283957,0.59461385,0.991686761,-0.76851809,0.582585156,0.744062662,0.99978441,0.039534982,6.14E-06,-0.99341619,9.39E-09,-0.999029458,-0.001484488,-0.767153561,-0.190232828,9.03E-10,-0.533334494,9.23E-05,0.229932502,0.679109275,-0.020389963,0.197263777,0.992078245,0.783827484,0.046757452,-0.029786417,-0.930271387,0.038706735,-0.08500953,-0.009670246,0.563308358,0.091189928,-0.061088674,-0.197801635,2.39E-15,-0.280795395,0.00086761,-0.092250347,4.45E-09,-0.001115982,-0.939562321,0.003451501,0.755543113,0.004385107,0
0.000548322,-0.307871759,8.83E-05,-0.005416535,0.463044643,0.056300141,-0.25407806,-2.21E-08,-0.077342443,0.395146906,0.990464747,0.000324222,0.052658439,-0.259658754,5.10E-07,0.710042655,-0.055834059,0.999999285,-0.944075763,-0.160127848,8.33E-08,-0.003614963,0.040064003,-0.692540824,-3.68E-09,4.00E-05,0.311465472,-0.866919518,0.487464607,-0.004399643,0.57675916,1.74E-08,-0.625940442,0.179575965,-0.999999821,-0.584225535,0.999871016,-0.78205055,0.149161041,0.102042735,-0.026645547,-0.042107709,-0.842256248,0.999939442,0.967102528,-0.409316719,0.968961239,0.169010326,-0.063118391,1.76E-06,-0.003309469,-5.56E-11,0.691899598,0.263450533,1.05E-11,-0.221453413,0.574994266,0.59866327,0.99576509,-0.786076128,0.583917856,0.744742453,0.999804258,0.073689111,4.30E-06,-0.994598389,5.15E-09,-0.999037266,-0.015928585,-0.699823141,-0.247754067,7.89E-10,-0.533652723,9.98E-05,0.23469682,0.687726974,-0.027590642,0.201666757,0.987544537,0.788080692,0.047567379,-0.042963974,-0.931388855,0.034663767,-0.089362718,-0.008468572,0.574590504,0.106832705,-0.071570516,-0.197619364,2.12E-15,-0.340425462,0.002014758,-0.068316855,3.82E-09,-0.001194928,-0.927131236,0.003391676,0.758217573,0.004027242,0
8.53E-06,-0.246456861,0.00047586,-0.006062595,0.240285933,0.074311651,-0.173139364,3.61E-07,-0.544605315,-0.057486925,0.994743943,0.000101028,0.006858656,-0.482916445,2.45E-06,0.685427368,-0.035513926,0.999971211,-0.924116135,-0.273422062,-1.00E-06,-0.001833955,0.312059492,-0.865353644,-4.62E-10,0.001209348,0.31023708,-0.755440176,0.570095718,-0.024221748,-0.15257135,6.25E-08,-0.511054575,0.048556514,-0.999999642,-0.68384248,0.996763229,-0.824400127,0.618796945,0.147753581,-0.03292001,0.050580613,-0.887651086,0.999860585,0.829195321,-0.574958801,0.857934356,0.018675441,-0.229566813,1.55E-06,-0.056160968,-1.55E-09,0.510353148,0.240168646,4.21E-09,-0.3104406,0.468907714,0.419167519,0.994150519,-0.592760265,0.627383411,0.716534674,0.999338388,0.000774309,2.74E-06,-0.993600368,3.60E-08,-0.998241663,-1.32E-07,-0.962542057,-0.070692055,6.80E-11,-0.489598632,8.53E-05,0.242560655,0.973418772,-0.009871664,0.222094193,0.999025762,0.813298106,0.085597105,-0.490783513,-0.972365499,0.113706902,-0.697196782,-0.012184225,0.631006658,0.014662113,0.666157126,-0.040173359,7.36E-17,-0.203734919,0.00742526,-0.15952307,6.55E-09,-0.002256674,-0.945283413,0.002923523,0.681872427,0.006346398,0
9.98E-06,-0.204743743,2.72E-05,-0.151322201,0.010181585,0.070375256,-0.195999369,-7.34E-10,-0.300590605,0.125542879,0.988334894,0.000838398,0.005867552,-0.012244914,2.38E-07,0.854626298,-0.025311239,0.999999523,-0.951709032,-0.736613333,-2.26E-09,-0.013982519,0.088457078,-0.6742782,-9.46E-09,4.62E-06,0.311007529,-0.932471693,0.975461066,-0.02319202,0.98191756,1.20E-10,-0.635739446,0.052249476,-0.999999702,-0.843693018,0.99977541,-0.761608064,0.141797692,0.250092715,-0.000194518,-0.062211838,-0.853856206,0.999894977,0.977584183,-0.685281515,0.998978972,0.069208682,-0.00877873,4.28E-07,0.011600723,-8.10E-15,0.607107282,0.642161012,1.01E-12,-0.755229771,0.407414615,0.340926856,0.999968946,0.570589483,0.591032982,0.707243145,0.999814451,0.387524009,0.000254291,-0.976101756,5.09E-10,-0.998760819,-0.464880645,-0.552997768,-0.457303494,3.47E-11,-0.524892569,0.000973945,-0.265176386,0.959165275,-0.144328117,0.023297498,-0.080020934,0.9938761,0.049523871,-0.755488515,-0.973291457,0.989334822,-0.780448735,-0.00877517,0.828660607,0.228649065,-0.031773619,-0.071491688,1.17E-14,-0.839433014,0.001196776,-0.000175298,7.87E-09,-0.052492,-0.825832188,0.110801592,0.76933527,0.009279476,0
3.63E-05,-0.310968488,4.29E-05,-0.037131291,0.117113128,0.196509391,-0.286738575,-9.42E-08,-0.201731607,0.478983432,0.967237294,0.000567499,0.041073713,-0.047519717,5.12E-08,0.726441503,-0.045996808,0.999999642,-0.932014406,-0.342149973,5.93E-09,-0.007737045,0.05896439,-0.665856361,-7.29E-10,3.40E-06,0.311348319,-0.989716947,0.792722225,-0.004232544,0.792673707,3.52E-09,-0.708344638,0.124823831,-0.999999762,-0.536027372,0.999953687,-0.762388229,0.107011192,0.3472763,-0.003780696,-0.038894691,-0.846238494,0.999909043,0.96879071,-0.505474448,0.997587264,0.085866623,-0.034500673,3.77E-07,0.056664854,-1.46E-11,0.712203503,0.434001952,7.26E-11,-0.45135501,0.569565058,0.541092992,0.999840319,-0.769236028,0.582973659,0.768844545,0.999928951,0.68485415,3.52E-06,-0.996653974,4.90E-10,-0.999203801,-0.44011721,-0.704875529,-0.517840505,7.76E-11,-0.500724852,0.000540367,0.214502841,0.917751014,-0.065126486,0.241171435,0.861205935,0.920030475,0.066119626,-0.16622813,-0.9250018,0.058207572,-0.315991163,-0.008191501,0.822965384,0.245896921,0.003944908,-0.198290154,5.88E-16,-0.911097169,0.017565625,-0.003092032,2.49E-08,-0.006637336,-0.85766989,0.006277817,0.764048815,0.002704531,0
1.33E-05,-0.248239756,0.000373246,-0.447942942,0.207983866,0.325862139,-0.209806472,6.17E-09,-0.481550306,0.189709932,0.946850955,3.03E-05,0.01039333,-0.036062885,7.21E-06,0.665497065,-0.017364971,0.999979377,-0.932763457,-0.427473217,-1.72E-09,-0.007761101,0.327771634,-0.836833477,-1.44E-10,1.79E-05,0.309963375,-0.947994709,0.771495581,-0.011096171,0.724849105,1.15E-06,-0.767105162,0.02445288,-0.999999404,-0.620722175,0.99786675,-0.763476014,0.717851102,0.60555625,-0.010686309,-0.067133643,-0.892604768,0.999887049,0.818271816,-0.775084734,0.992704332,-0.069525041,-0.041437443,2.28E-08,0.070049144,-4.64E-10,0.580084085,0.376642406,3.66E-09,-0.493606806,0.635286272,0.348447502,0.998395145,-0.412828445,0.649377763,0.730852008,0.999670625,0.055097204,5.75E-07,-0.993358076,3.50E-10,-0.998773277,-0.000793646,-0.907202661,-0.415386409,1.12E-10,-0.474376768,0.000100131,-0.057321656,0.969438851,-0.077925667,0.317331135,0.923482835,0.76730895,0.077467993,-0.718329668,-0.948268533,0.821023822,-0.547338784,-0.010063013,0.746385038,0.186320201,0.571307719,-0.026739554,1.93E-18,-0.939523399,0.002002053,-0.002442587,1.01E-08,-0.121853031,-0.889031649,0.004926897,0.747074425,0.002609228,0
0.000275995,-0.139212757,0.001935216,-0.033988036,0.270809442,0.038885713,-0.113411896,-6.43E-07,-0.45112586,-0.196954384,0.983681858,0.000629427,0.025448369,-0.436480671,1.69E-05,0.631246567,-0.018156322,0.999995708,-0.880847454,-0.288886636,-7.89E-07,-0.001219427,0.519154072,-0.641134322,-1.35E-09,0.000769376,-0.249180242,-0.762513936,0.56996733,-0.039197937,0.433933288,3.79E-06,-0.650130868,0.00355503,-0.999998808,-0.798945546,0.9978894,-0.764324069,0.380421162,0.133516163,-0.001317833,0.096599475,-0.843918324,0.999926984,0.544276714,-0.742527425,0.862168133,0.130265802,-0.160652027,1.58E-06,-0.029150091,-8.36E-11,0.503539205,0.301936865,1.18E-10,-0.627696335,0.458321393,0.375829846,0.996203005,-0.599088132,0.772162199,0.664520562,0.999904096,0.012321427,4.65E-06,-0.99865967,1.92E-07,-0.998416185,-0.000232725,-0.966649413,-0.229207247,1.41E-09,-0.628157735,3.60E-05,0.214026988,0.524603188,-0.002327741,0.059076291,0.994561076,0.916734993,0.072356284,-0.000138582,-0.976702332,0.096692443,-0.352761626,-0.004778333,0.588176191,0.012615934,0.484171957,-0.271768808,2.07E-14,-0.379677027,-0.003333844,-0.185055435,7.96E-09,-0.003599291,-0.943981111,0.006324946,0.717695713,0.005013437,0
0.000244349,-0.138054252,0.002691715,-0.003667717,0.414807379,0.070737541,-0.091615103,1.89E-05,-0.622527122,-0.665892005,0.954059064,2.69E-05,0.026502097,-0.619721651,7.23E-06,0.570920825,-0.00490353,0.999971032,-0.881783307,-0.316825569,-8.87E-06,-0.000610861,0.723457396,-0.678376257,-6.29E-10,0.025579942,-0.24917452,-0.83496505,0.435907453,-0.038436539,-0.022053745,0.001325811,-0.614257932,0.002456626,-0.99999541,-0.804237962,0.978912234,-0.978859782,0.393996328,0.140433088,-0.056793608,0.128466368,-0.882466137,0.999599159,0.605742991,-0.454782814,0.53580004,0.130663812,-0.198300853,2.03E-05,-0.141222075,-9.57E-11,0.316177428,0.038198926,6.84E-11,-0.177777901,0.174920112,0.139412597,0.821971238,-0.5617764,0.716829717,0.664265573,0.99670881,0.00658326,5.87E-07,-0.989442587,4.60E-06,-0.992298186,-2.84E-07,-0.992714942,-0.050735891,3.12E-09,-0.588266313,1.65E-05,0.235907301,0.37852791,-0.035121325,0.07565102,0.999905288,0.462832153,0.091618411,-0.000124071,-0.974084556,0.157625556,-0.38569504,-0.009558194,0.43583107,0.021375433,0.767821968,-0.271758586,6.56E-16,-0.168581292,-0.000167952,-0.221044153,3.10E-09,-0.002383827,-0.974649429,0.002061508,0.600015938,0.009530757,0
0.000585177,-0.248570427,0.009439788,-0.018572567,0.288941264,0.121366359,-0.099899292,5.34E-05,-0.739545703,-0.81035465,0.989107072,1.09E-05,0.004929518,-0.569475293,3.93E-05,0.543309987,-0.006599854,0.999501705,-0.952159107,-0.317895323,-7.59E-06,-0.000867506,0.923248172,-0.846668899,-9.63E-11,0.032597274,0.3097094,-0.528108776,0.549382865,-0.026791593,0.025433568,0.031188367,-0.663030863,0.003293161,-0.999996185,-0.724320471,0.968584597,-0.909721434,0.856517136,0.127462551,-0.034292661,0.111892603,-0.920213878,0.999541819,0.730291188,-0.573005795,0.797875464,0.155253381,-0.220981911,3.31E-07,-0.094005704,-2.17E-10,0.393600881,0.028812326,1.16E-07,-0.18395026,0.232500896,0.124367878,0.946443915,-0.525851905,0.610037446,0.633871913,0.998499155,0.000321929,1.74E-06,-0.992781341,1.17E-07,-0.978762031,-2.27E-08,-0.993257582,-0.061760094,1.12E-09,-0.359400451,0.000195945,0.520066261,0.635500014,-0.008982338,0.156835288,0.99977237,0.365479827,0.06792748,-0.342124879,-0.971465409,0.116682746,-0.358610034,-0.044571657,0.34628123,0.01919985,0.868047774,-0.142101482,3.76E-15,-0.223769128,0.008774769,-0.19968231,1.10E-08,-0.004878695,-0.960103631,0.001462445,0.707328439,0.003270462,0
5.07E-05,-0.187551573,0.00045351,-0.393100649,0.020459671,0.098952383,-0.207297623,-1.73E-06,-0.172746226,0.172619432,-0.980992794,4.05E-05,0.025131848,-0.003724766,1.98E-07,0.851203084,-0.009149563,0.999999702,-0.912730098,-0.240014941,-1.75E-09,-0.017160811,0.11470373,-0.58467114,-4.56E-08,5.59E-06,0.310432643,-0.995851517,0.923703313,-0.04102705,0.960537195,1.22E-07,-0.818618,-1.53E-06,-0.999999464,-0.605530322,0.999460101,-0.761612117,0.1087697,0.104201533,-0.000122231,-0.082938783,-0.898302794,0.999904931,-0.106574975,-0.62035799,0.866792858,-0.088423491,-0.000330557,1.14E-07,0.018760132,-2.71E-11,0.572479725,0.277488112,5.59E-09,-0.871409237,0.097537354,0.318415761,0.999985337,-0.698584914,0.623342276,0.680579722,0.99988842,0.89894855,3.18E-07,-0.996935844,1.09E-09,-0.999184489,-0.38081038,-0.88154608,-0.615882874,1.04E-11,-0.514944017,0.001518785,0.162401929,0.992060184,-0.182213813,0.130115911,0.07383395,0.986035764,0.046311826,-0.005233883,-0.97214973,0.255938083,-0.639134943,-0.003468971,0.689846933,0.147242993,0.13577266,-0.199326903,-5.52E-16,-0.938474298,-0.246395543,-8.12E-06,2.24E-08,-0.086627923,-0.887564063,0.031124562,0.762714982,0.003242855,0
-7.23E-05,-0.389542967,1.37E-05,-0.052047495,0.188097671,0.024615183,-0.258393705,-1.79E-08,-0.155135781,-0.100015074,-0.03428109,0.000443259,0.001678948,-0.067352965,3.34E-07,0.525330245,-0.145946398,0.999997079,-0.163458362,-0.560781062,-1.69E-08,-0.003334193,0.010882469,-0.053860191,-1.67E-12,8.46E-06,0.310736418,-0.994046032,0.871805966,-0.097211607,0.290581852,1.95E-07,-0.805155516,-0.906960905,-0.999999762,-0.597682536,0.9993698,-0.763562024,-0.029172691,0.269236326,-0.129731804,-0.059529711,-0.777066767,0.999868155,2.74E-05,-0.280490488,-0.271893233,-0.295613229,-0.013073326,8.02E-09,-0.016186804,-2.93E-14,0.128999308,0.013856708,1.75E-13,-0.283903837,0.199632719,-0.972777605,0.999957383,-0.107517265,0.338853061,0.472128868,-0.832870781,0.933780074,6.68E-06,0.222801089,1.35E-05,-0.999473691,-0.996756732,-0.324636579,-0.129740983,0.440841645,-0.486609697,0.000908709,-0.996579587,0.958582401,-0.941139638,0.295451701,0.834575772,0.900566936,0.02828441,-0.757038713,-0.998693049,0.812218547,-0.032942206,-0.008847215,-0.952180564,0.191683844,-0.190875456,-4.80E-17,-2.27E-14,-0.385001689,0.65649271,-0.007102212,8.77E-09,-0.007985102,-0.685571134,0.007833577,-0.664730012,0.017470729,0
1.94E-05,-0.249637559,0.002103871,-0.239599079,0.259955823,0.04522362,-0.203604504,-4.43E-05,-0.526041329,0.145209223,0.988821983,0.001228582,0.009791315,-0.001188597,4.10E-06,0.648219109,-0.020900708,0.999977529,-0.938818395,-0.220942646,-7.50E-07,-0.002405847,0.468920231,-0.843546331,-5.60E-09,5.19E-05,0.310214162,-0.791364849,0.953941524,-0.012822808,0.38699156,1.64E-05,-0.774979651,0.102021627,-0.999999762,-0.689090431,0.995092213,-0.761486828,0.59837985,0.152130529,-1.99E-05,0.067779608,-0.916043699,0.999820888,0.922635615,-0.771136343,0.997087538,0.079732962,-0.000511008,3.76E-08,0.030081466,-3.07E-10,0.541898072,0.63967365,1.63E-10,-0.820661008,0.281824976,0.38420856,0.999785602,-0.656426311,0.621326566,0.731783748,0.999802828,0.001821773,9.40E-05,-0.99703759,4.93E-10,-0.998447061,-0.006494795,-0.97391516,-0.253180832,1.59E-10,-0.425847143,0.00044505,0.271437407,0.957012773,-0.020688074,0.168784887,0.054979034,0.97347331,0.060889341,-0.64068681,-0.95346421,0.061366025,-0.615938127,-0.003795563,0.508527398,0.112001017,0.440330297,-0.054574981,1.06E-13,-0.8363989,0.009218751,-4.26E-05,1.34E-07,-0.093783565,-0.965425432,0.042306203,0.75747174,0.002610226,0
3.52E-06,-0.217299297,0.000101758,-0.490936875,0.013329735,0.19532612,-0.228988364,-2.25E-07,-0.307420433,0.109705269,0.976855397,0.000363153,0.005176453,-0.011444896,3.98E-09,0.707430005,-0.04697727,0.999998152,-0.944725931,-0.423263818,4.55E-09,-0.012769341,0.11836005,-0.76131314,-2.53E-10,4.70E-06,0.310922623,-0.996825457,0.905739427,-0.03166927,0.93198812,8.86E-09,-0.783814669,0.090292215,-0.999999642,-0.732476413,0.999808133,-0.761728406,0.234031096,0.355626732,-0.001180321,-0.00100995,-0.859811544,0.99968034,0.922062755,-0.891377628,0.999088347,0.003411939,-0.002110502,7.76E-08,0.043046944,-4.07E-13,0.588222802,0.720068097,1.95E-12,-0.724284768,0.364466369,0.478263944,0.999794245,0.416141331,0.626981378,0.690775335,0.999680161,0.204424977,1.47E-05,-0.991757989,8.35E-10,-0.999006212,-0.266694993,-0.76525569,-0.385031849,4.02E-11,-0.496658921,0.000327011,-0.239577681,0.948483169,-0.255034536,0.088705465,0.699305892,0.928951979,0.04428637,-0.748394132,-0.980675697,0.937743127,-0.594725013,-0.003512795,0.798590243,0.140761569,0.03848289,-0.04724985,1.09E-15,-0.950825751,-0.060889333,-0.00022709,2.11E-08,-0.248845354,-0.834836483,0.014566108,0.769707859,0.004413831,0
0.000540489,-0.307928234,2.64E-05,-0.036198385,0.083995499,0.12339662,-0.215799183,-4.91E-08,-0.065790415,0.406739712,0.950158477,0.00109339,0.053476695,-0.056355365,8.00E-08,0.707884014,-0.059687667,0.999999702,-0.944787621,-0.263780326,4.90E-09,-0.009276325,0.041126076,-0.674261451,-4.41E-09,9.02E-06,0.311468631,-0.953636289,0.782933116,-0.00430739,0.864417851,3.81E-09,-0.69060427,0.112183154,-0.999999821,-0.579336226,0.9999367,-0.762449026,0.168123201,0.193032727,-0.004050987,-0.053844798,-0.83135432,0.999937832,0.966842294,-0.439969808,0.99630636,0.168037251,-0.019683527,6.85E-07,0.051468655,-1.50E-12,0.68827337,0.419501901,6.81E-12,-0.401749492,0.568277657,0.639936686,0.999596834,-0.763403296,0.578980982,0.750769138,0.999833941,0.189654395,9.56E-06,-0.996679425,5.87E-10,-0.999063015,-0.460267276,-0.535825491,-0.429922223,4.52E-10,-0.53102833,0.000182229,0.220162213,0.678988457,-0.132229239,0.201648906,0.893223643,0.901581824,0.04377199,-0.179112405,-0.936256886,0.042099312,-0.179929554,-0.003497145,0.774780035,0.153311521,-0.082893126,-0.198240206,2.08E-15,-0.829279006,0.007865777,-0.00523621,1.29E-08,-0.005951476,-0.88707453,0.0094129,0.761118472,0.003407411,0
2.68E-05,-0.310843319,7.44E-05,-0.036148217,0.211851895,0.135085598,-0.228651941,-1.15E-07,-0.12942037,0.492378116,0.97440511,0.000754287,0.071158983,-0.072483949,2.34E-07,0.749218583,-0.047279976,0.999999642,-0.928510666,-0.261768758,2.15E-08,-0.007284057,0.047003672,-0.713122487,-6.79E-09,7.83E-06,0.311340839,-0.98079282,0.71921438,-0.002212855,0.497328162,1.07E-08,-0.713580906,0.117478751,-0.999999762,-0.589019775,0.999945879,-0.763357222,0.431519449,0.250183642,-0.006829377,-0.047120307,-0.845022202,0.999908149,0.960786819,-0.506962538,0.994798422,0.083605282,-0.036356054,1.50E-06,0.072762869,-1.01E-09,0.717984736,0.487686187,4.13E-10,-0.382264704,0.600760281,0.576079607,0.999650896,-0.823037386,0.557224572,0.764682651,0.999924064,0.056355294,5.99E-06,-0.995869756,2.99E-10,-0.999233305,-0.008528379,-0.672322631,-0.297904342,1.19E-10,-0.508246601,0.000441182,0.22518906,0.921069503,-0.025849685,0.23848483,0.916230083,0.888985515,0.082085468,-0.129587546,-0.9243626,0.031135416,-0.332718074,-0.007750223,0.750799954,0.284442693,-0.027704664,-0.198101029,1.19E-16,-0.845435083,0.018750066,-0.005853066,5.80E-08,-0.00559881,-0.911836088,0.006348421,0.759711146,0.003095272,0
2.69E-05,-0.214007378,7.76E-05,-0.020419428,0.386855394,0.054739602,-0.150222734,-8.01E-09,-0.137529925,0.168338045,0.992771626,0.000129804,0.006474381,-0.158844799,3.66E-07,0.720122278,-0.026304523,0.999995172,-0.946222723,-0.602375209,4.25E-09,-0.003845562,0.028026721,-0.673282385,-2.14E-10,3.63E-06,0.310981303,-0.952936709,0.537574947,-0.026319822,0.735170007,1.87E-09,-0.507157683,0.206048444,-0.999999523,-0.784019709,0.999573231,-0.769703209,0.129914165,0.138996124,-0.107870974,-0.073296987,-0.828231931,0.999641478,0.946531355,-0.823045969,0.996030271,-0.07049945,-0.102592513,5.64E-09,0.070532553,-2.56E-13,0.561326087,0.336708963,1.59E-10,-0.248173401,0.545979083,0.392171383,0.999428689,0.596113503,0.636378169,0.696730793,0.999293864,0.702948987,1.96E-06,-0.993924797,5.55E-09,-0.998856127,-0.30705741,-0.477895856,-0.30226475,7.96E-11,-0.508606076,0.000603794,-0.095762692,0.956424594,-0.435002536,0.134104967,0.977181494,0.861252606,0.037212804,-0.75225389,-0.982422173,0.994719625,-0.470093042,-0.003988376,0.573120892,0.203779355,-0.078423716,-0.005303743,4.07E-16,-0.229302913,0.047360111,-0.020777231,3.51E-10,-0.003578637,-0.858165681,0.008931249,0.734774053,0.00508503,0
2.55E-06,-0.131147653,0.000187042,-0.004404284,0.627865016,0.063173465,-0.145448744,-2.26E-05,-0.250466496,-0.997549713,0.801162422,0.000209733,0.008890566,-0.321755379,4.59E-07,0.636231601,-0.033138596,0.999999762,-0.908611536,-0.177289784,-1.01E-07,-0.003547927,0.090781972,-0.596199691,-1.10E-08,0.000216122,0.310702801,-0.890581489,0.32744363,-0.129272833,0.221667916,2.05E-06,-0.61632216,0.001075851,-0.999999702,-0.785012007,0.999579847,-0.80740875,-0.011486695,0.09272629,-0.140247911,0.073141314,-0.894097745,0.999910355,0.263122827,-0.44722864,0.872762978,0.12543112,-0.078924693,1.11E-06,-0.064525679,-1.77E-08,0.561426699,0.144066975,3.60E-09,-0.178099155,0.381570071,0.373962611,0.97598052,-0.699120879,0.624983311,-0.997090518,0.998818398,0.028404932,3.45E-06,-0.994790077,1.61E-08,-0.999144435,-7.08E-05,-0.809486032,-0.084039301,6.57E-11,-0.583272398,0.00025507,0.182567447,0.914519012,-0.033123624,0.29330048,0.993014336,0.753907382,0.076228604,-0.016428186,-0.988769114,0.128646284,-0.615537226,-0.01070853,0.390562057,0.026099138,0.321226746,-0.199056044,1.34E-16,-0.134117335,-0.005335998,-0.07290899,3.25E-09,-0.001265145,-0.951877594,0.003875095,0.65265584,0.015367915,0
6.81E-07,-0.215857446,3.33E-06,-0.474918932,0.001191575,0.014500107,-0.314330846,-1.50E-12,-0.190909714,0.131616369,-0.720939875,0.012192847,0.004506208,0.01297415,1.17E-05,0.58929795,-0.055371929,0.999999225,-0.945735097,-0.120698385,-1.19E-10,-0.033958826,0.057225939,-0.790559828,-9.59E-12,2.10E-05,0.3109577,-0.929588318,0.99630332,-0.031243086,0.943098187,3.76E-13,-0.095783405,-0.919823945,-0.999999642,-0.80926162,0.998960078,-0.761592746,0.319030643,0.226790026,-8.68E-07,-0.080310054,-0.836819053,0.999816775,7.48E-09,-0.601938963,-0.682053506,0.00838352,-0.383487403,1.18E-06,0.002340869,-1.03E-07,0.544487774,0.294665515,5.50E-12,-0.775871754,0.075894251,0.150451913,0.99997133,-0.725711763,0.572221994,0.688936651,0.999803007,0.065730028,0.000163715,0.3062419,1.44E-09,-0.998964608,-0.000710833,-0.710649848,-0.575585306,9.15E-11,-0.576156199,0.002413506,-0.996606946,0.883336067,-0.001161288,0.053276099,-0.747121215,0.999660552,0.028057892,-0.760053933,-0.983264267,0.005061794,-0.594626546,-0.004684797,0.735219419,0.000467028,-0.065430567,-1.69E-18,3.73E-11,-0.493519753,-0.002186286,-0.023582341,4.00E-08,-0.148908749,-0.753265262,0.442494482,0.770140946,0.064380519,0
1.50E-06,-0.204641223,1.00E-06,-0.213751718,9.38E-05,0.017156117,-0.208901837,-7.57E-12,-0.4861404,0.144288808,0.94285208,0.013823088,0.005859302,0.002043979,2.85E-07,0.836279869,-0.026153378,0.999999762,-0.95386678,-0.748323381,-1.42E-09,-0.038737185,0.099021673,-0.669019282,-2.75E-10,1.28E-06,0.311017394,-0.983537912,0.998581529,-0.023192963,0.99403125,9.31E-14,-0.50407207,0.049876675,-0.999999523,-0.854804456,0.99977839,-0.761592746,0.179081798,0.164495245,-1.24E-08,-0.0819951,-0.876164496,0.999890864,0.984631479,-0.744750381,0.999173522,0.09656328,-0.004616884,1.40E-06,0.000533082,-4.66E-12,0.618954539,0.664284885,3.27E-14,-0.903250158,0.020256942,0.35124743,0.999982774,0.633523345,0.589945436,0.707865179,0.999805391,0.458569318,0.000423058,-0.975976944,2.44E-09,-0.998764038,-0.493746698,-0.606384873,-0.505924284,2.36E-11,-0.562493801,0.002657959,-0.258456737,0.942472517,-0.13661553,0.019060116,-0.758759916,0.999524117,0.040914796,-0.758201778,-0.972909689,0.972603619,-0.773851931,-0.000238549,0.804807305,0.005590788,-0.037925195,-0.101260841,3.05E-11,-0.820638537,-0.001721794,-2.52E-06,-8.45E-10,-0.050070539,-0.805206656,0.589309156,0.770201981,0.066434301,0
0.000174067,-0.138862103,0.00103381,-0.006416639,0.317164451,0.052702423,-0.086905122,5.66E-06,-0.41459921,-0.37787348,0.993183017,0.0001066,0.025500674,-0.590036511,2.22E-06,0.579575062,-0.006247972,0.999985754,-0.881692171,-0.325065881,-1.18E-06,-0.00170061,0.573784351,-0.674839258,-1.94E-09,0.005055797,-0.249176919,-0.837846279,0.386528313,-0.040423006,-0.020684741,1.68E-05,-0.561776459,0.090905972,-0.999998271,-0.790532708,0.987807691,-0.979335964,0.42135036,0.124819838,-0.024955025,0.145116374,-0.904502511,0.999850392,0.841847241,-0.439807087,0.727162659,0.131008267,-0.128884375,1.03E-05,-0.029010898,-6.91E-11,0.372484326,0.109137185,3.04E-11,-0.240187064,0.29693985,0.198971108,0.897774041,-0.538357377,0.722724915,0.66347003,0.997957945,0.004700691,1.55E-06,-0.990875304,9.58E-07,-0.997042298,-1.58E-06,-0.973007202,-0.096056357,1.03E-09,-0.609933436,5.14E-06,0.217382327,0.35378933,-0.001916702,0.08927393,0.999706984,0.56421864,0.08235386,-2.88E-05,-0.971076727,0.199881703,-0.469526738,-0.00659547,0.509377182,0.02184003,0.712752461,-0.271732062,2.41E-16,-0.191840246,-0.001635444,-0.123574466,2.32E-09,-0.001350877,-0.966565788,0.001413062,0.578139126,0.008027659,0
9.53E-07,-0.216084197,2.30E-06,-0.298985183,0.002043586,0.019799676,-0.316664189,-1.36E-10,-0.329795271,0.081058249,-0.660796344,0.001416362,0.004789738,-0.001896069,4.55E-05,0.546095073,-0.053905286,0.999995947,-0.952577174,-0.130445331,-7.30E-09,-0.018540869,0.198141411,-0.82345897,-3.78E-12,0.000127195,0.310871989,-0.905229568,0.990436554,-0.031203404,0.805767596,3.34E-12,-0.099059142,-0.910273254,-0.999999404,-0.787530601,0.997700155,-0.761568487,0.543298781,0.241212413,-1.86E-06,-0.107123666,-0.88840282,0.999852896,6.16E-09,-0.598006368,-0.662053585,0.08441215,-0.236673176,9.30E-06,0.004423021,-2.19E-07,0.547305286,0.198911563,1.05E-10,-0.75096184,0.062791139,0.638996243,0.999942243,-0.744427204,0.577457964,0.688095808,0.999832928,0.023274746,0.000105058,0.393391788,8.60E-09,-0.998862863,-2.70E-05,-0.871724486,-0.368846387,2.47E-10,-0.580422699,0.000817997,-0.996353745,0.889148533,-0.000326903,0.067410834,-0.648695529,0.999413908,0.031104177,-0.760053217,-0.97824347,0.003807207,-0.248179853,-0.003695972,0.701268375,0.000507698,0.151392415,-8.25E-18,8.75E-12,-0.352635115,0.000292802,-0.038020577,5.35E-08,-0.136294723,-0.863351047,0.141437784,0.769952476,0.046639893,0
6.34E-05,-0.307907939,3.91E-06,-0.031211622,0.007439825,0.058285706,-0.270580888,-1.53E-10,-0.161238357,0.411751449,0.921408176,0.002557809,0.052260391,-0.030057698,1.03E-06,0.697958529,-0.058920253,0.999999642,-0.945579588,-0.17605105,-2.87E-09,-0.016532604,0.04733216,-0.661591768,-2.48E-10,1.43E-05,0.31147027,-0.928894818,0.961299717,-0.004395715,0.98295337,1.05E-11,-0.446803451,0.064775266,-0.999999702,-0.589973152,0.999923706,-0.761610389,0.142593414,0.191928208,-4.21E-05,-0.083255403,-0.831978619,0.999938369,0.987605035,-0.547349393,0.99692291,0.168658242,-0.09106195,1.96E-06,0.009166623,-1.40E-11,0.701764286,0.387568653,3.16E-13,-0.725748956,0.34621349,0.636170387,0.999967813,-0.755811691,0.586804867,0.751512587,0.9998402,0.466507077,2.21E-05,-0.999212265,2.02E-09,-0.99905616,-0.539583504,-0.573151708,-0.558000803,4.13E-10,-0.590317845,0.000428596,0.201510429,0.67229718,-0.050523274,0.075433999,-0.378542095,0.995736122,0.044658512,-0.376209706,-0.936575055,0.013465011,-0.169561327,-0.000440459,0.83823967,0.005989157,-0.079002492,-0.198210999,2.71E-13,-0.72742635,0.007379357,-0.002014874,3.94E-09,-0.005714529,-0.863149405,0.070346966,0.766762376,0.014018249,0
1.74E-05,-0.21234788,8.86E-05,-0.336289495,0.10179171,0.54870069,-0.148761451,-2.72E-07,-0.364316136,0.196512803,0.9688555,0.000157153,0.006789948,-0.03849563,7.75E-08,0.743175745,-0.026883163,0.999996603,-0.955084622,-0.460817188,8.88E-10,-0.007943943,0.194603384,-0.682510078,-4.27E-10,2.48E-06,0.310937345,-0.994199097,0.822299361,-0.017699752,0.833839953,3.45E-07,-0.761656165,0.129520625,-0.999999702,-0.757635713,0.999413788,-0.762906313,0.276411027,0.819827974,-0.008789381,-0.008623305,-0.867223561,0.999815702,0.922042727,-0.647192836,0.99853301,-0.022810023,-0.01810007,2.57E-08,0.099675983,-1.56E-12,0.592696905,0.641086459,5.91E-10,-0.533142388,0.658969045,0.384529918,0.999643087,-0.522338867,0.606193125,0.697800457,0.999506772,0.654487491,7.15E-07,-0.995080233,3.93E-10,-0.998595297,-0.194615155,-0.830791533,-0.408826143,1.01E-10,-0.493904144,0.000237109,-0.206141174,0.92717886,-0.020916117,0.280991048,0.935731888,0.816162646,0.033174388,-0.750387371,-0.988304496,0.387188941,-0.356077909,-0.005262944,0.704737663,0.198409021,0.263874799,-0.010818009,4.13E-18,-0.917033195,0.304707617,-0.004130307,3.36E-08,-0.055413194,-0.813659608,0.003435131,0.762496471,0.002023735,0
-4.26E-05,-0.39499107,2.83E-05,-0.022068504,0.279299676,0.017972272,-0.259794563,-5.58E-09,-0.500974953,-0.177037761,0.122679174,0.001305822,0.001348438,-0.109954573,1.48E-06,-0.23925139,-0.137772232,0.999994576,-0.164286643,-0.680205107,-1.40E-08,-0.005206374,0.04864379,-0.053231396,-1.44E-15,6.55E-05,0.31076932,-0.979798257,0.866366386,-0.097719073,0.072177991,1.18E-06,-0.739836097,-0.910574377,-0.999999762,-0.363171726,0.999054432,-0.765611768,-0.148801357,0.194636643,-0.188570321,-0.091236249,-0.803105712,0.999741793,1.88E-06,-0.725730658,-0.270588487,-0.169240788,-0.013419706,5.48E-10,-0.162338138,-9.92E-14,0.05452371,0.009126907,1.38E-13,-0.239494428,0.265381694,-0.967789769,0.999910176,0.561809182,0.338858068,0.472824723,-0.847900391,0.876823545,7.57E-06,0.402621031,1.32E-06,-0.999474823,-0.988173187,-0.443112373,-0.04809903,0.438429236,-0.447589904,0.000820042,-0.999147892,0.960092604,-0.981652081,0.108196117,0.874976516,0.919015169,0.007112012,-0.757038653,-0.99777633,0.995917499,0.14299795,-0.020063801,-0.892156363,0.322316319,-0.063268445,-2.64E-16,-8.01E-15,-0.203812167,0.152372628,-0.018873977,-1.92E-09,-0.001048182,-0.606782198,0.00602328,-0.664833665,0.018325329,0
-5.28E-05,-0.372530192,7.79E-06,-0.03346749,0.139914066,0.055835448,-0.259744048,-5.22E-07,-0.592744589,-0.276971936,0.177192211,0.000161168,0.00172306,-0.046913806,7.59E-07,-0.072110385,-0.11251989,0.999992073,-0.172341153,-0.696344852,-1.47E-08,-0.004945199,0.437005371,-0.053373076,-2.91E-17,1.23E-05,0.310298651,-0.981387436,0.76972425,-0.095516741,0.089325026,3.17E-05,-0.87728405,-0.866731346,-0.999999762,-0.608280063,0.961859465,-0.765961885,-0.333124459,0.286172211,-0.027174842,-0.033876281,-0.894276679,0.999843895,1.17E-05,-0.702486813,-0.272976458,-0.201731622,-0.04105356,1.39E-09,0.034916606,-7.26E-15,0.048874132,0.018411329,1.35E-12,-0.356044382,0.290169239,-0.814436138,0.999666095,0.562930644,0.342178434,0.471487552,-0.825030565,0.973932683,3.47E-06,0.28096503,2.40E-07,-0.999391019,-0.982943833,-0.782571614,-0.24033387,0.406166643,-0.464057505,0.000214951,-0.996676326,0.957569659,-0.803260505,0.083924323,0.901623547,0.843713939,-0.004763683,-0.757038653,-0.991464019,0.994909823,0.071383774,-0.009694464,-0.476325989,0.299110115,0.593129694,-7.99E-16,-9.50E-16,-0.394647449,0.031102814,-0.003985283,-5.63E-09,-0.001119085,-0.582862675,0.006689606,-0.662544847,0.010107263,0
8.25E-06,-0.212006673,0.000844676,-0.388426393,0.05057567,0.328029156,-0.164484635,7.97E-08,-0.727189064,-0.111743666,0.950649738,5.46E-05,0.005085282,-0.020579347,1.22E-05,0.593084216,-0.017676031,0.999925196,-0.952513933,-0.34743458,-2.23E-08,-0.013499856,0.661800027,-0.799227536,-2.60E-11,0.00012731,0.309912086,-0.906778634,0.904228985,-0.027674275,0.742324352,3.54E-06,-0.696967483,0.001849322,-0.999998927,-0.708089054,0.991241395,-0.76183629,0.882594466,0.529220164,-0.000370869,-0.018951071,-0.904024303,0.999859929,0.756690562,-0.680781364,0.994416654,0.019888807,-0.063074134,4.47E-08,0.017030016,-1.63E-09,0.563584924,0.39854911,7.25E-09,-0.724140346,0.652511537,0.245855376,0.999629259,-0.599472821,0.616204977,0.692740381,0.999682188,0.019334985,4.24E-07,-0.997212946,1.12E-09,-0.998055339,-4.19E-05,-0.983117878,-0.339850187,8.52E-11,-0.503059268,0.000162552,-0.167874143,0.931533575,-0.018632846,0.195669711,0.910507798,0.920915604,0.058685821,-0.750459313,-0.957172871,0.129325941,-0.578624725,-0.006752444,0.690836489,0.120139845,0.67076844,-0.078181043,3.20E-17,-0.915174127,-0.000703768,-0.001056312,1.81E-08,-0.1191957,-0.927276969,0.009334009,0.757151127,0.004246154,0
